<?xml version="1.0"?>
<opencv_storage>
<opencv_ml_svm>
  <format>3</format>
  <svmType>C_SVC</svmType>
  <kernel>
    <type>LINEAR</type></kernel>
  <C>1.</C>
  <term_criteria><epsilon>1.0000000000000000e-02</epsilon>
    <iterations>1000</iterations></term_criteria>
  <var_count>216</var_count>
  <class_count>10</class_count>
  <class_labels type_id="opencv-matrix">
    <rows>10</rows>
    <cols>1</cols>
    <dt>i</dt>
    <data>
      0 1 2 3 4 5 6 7 8 9</data></class_labels>
  <sv_total>45</sv_total>
  <support_vectors>
    <_>
      1.35525272e-20 1.35525272e-20 5.43370334e-06 -5.47510426e-05
      -3.85664935e-05 3.21637322e-06 -3.16778605e-05 -3.05666217e-05
      -2.00822633e-05 1.35525272e-20 1.35525272e-20 1.35525272e-20
      1.35525272e-20 1.13146498e-05 5.91467833e-05 0. 0. 0. 0.
      -5.36813714e-05 -5.93600344e-05 -2.77174840e-05 1.35525272e-20
      1.35525272e-20 3.11747021e-06 8.43006055e-05 3.92777729e-05 0. 0.
      0. 0. -3.67264438e-05 -8.04807278e-05 -4.76555470e-05
      -9.06703644e-06 1.35525272e-20 3.97675503e-05 6.51445080e-05 0. 0.
      0. 1.39106842e-05 3.25611290e-05 -2.76594074e-05 -8.04807278e-05
      -1.00175879e-04 -2.77174840e-05 -9.06703644e-06 3.81988229e-06
      -5.16853361e-05 -4.01391917e-05 -3.22330598e-05 4.63973665e-05
      9.03724722e-05 6.71854868e-05 -1.39039557e-05 -6.18302802e-05
      -1.00175879e-04 -6.71854868e-05 -2.77174840e-05 -1.42553893e-06
      -1.00175879e-04 -1.00175879e-04 -4.83217518e-05 2.00591239e-05
      1.00175879e-04 1.00175879e-04 3.06192378e-05 -5.27632437e-05
      -1.00175879e-04 -1.00175879e-04 -2.77174840e-05 -2.11206916e-05
      -1.00175879e-04 -1.00175879e-04 -1.53544115e-05 1.30698145e-05
      7.48984967e-05 1.00175879e-04 4.64945078e-05 -4.64758668e-05
      -1.00175879e-04 -1.00175879e-04 -3.03501929e-05 -2.83369773e-05
      -1.00175879e-04 -1.00175879e-04 -1.53544115e-05 2.21368518e-05
      7.33765264e-05 1.00175879e-04 4.64945078e-05 -3.08999079e-05
      -1.00175879e-04 -1.00175879e-04 -4.71087842e-05 -7.03944097e-05
      -1.00175879e-04 -1.00175879e-04 -9.06703644e-06 2.21368518e-05
      7.33765264e-05 1.00175879e-04 4.64945078e-05 -1.42553893e-06
      -1.00175879e-04 -1.00175879e-04 -7.65831501e-05 -9.11088428e-05
      -1.00175879e-04 -1.00175879e-04 -9.06703644e-06 2.21368518e-05
      7.33765264e-05 1.00175879e-04 4.64945078e-05 -1.42553893e-06
      -1.00175879e-04 -1.00175879e-04 -7.68442478e-05 -6.76147465e-05
      -1.00175879e-04 -1.00175879e-04 -9.06703644e-06 2.21368518e-05
      9.86539089e-05 1.00175879e-04 4.64945078e-05 -1.42553893e-06
      -1.00175879e-04 -1.00175879e-04 -5.39429238e-05 -2.11206916e-05
      -1.00175879e-04 -1.00175879e-04 -1.53544115e-05 2.21368518e-05
      9.86539089e-05 1.00175879e-04 4.64945078e-05 -4.64758668e-05
      -1.00175879e-04 -1.00175879e-04 -2.77174840e-05 -2.11206916e-05
      -1.00175879e-04 -1.00175879e-04 -5.93073528e-05 1.30698145e-05
      1.00175879e-04 1.00175879e-04 4.38617972e-05 -5.55429033e-05
      -1.00175879e-04 -9.29595917e-05 -2.77174840e-05 -1.58752719e-05
      -6.52421077e-05 -1.00175879e-04 -9.77341842e-05 2.85314618e-05
      9.11088428e-05 8.38925553e-05 2.84538510e-05 -6.18302802e-05
      -1.00175879e-04 -6.34852258e-05 -2.77174840e-05 -1.32425612e-05
      -6.46502531e-06 -2.89914515e-05 -1.96951532e-05 1.32425612e-05
      2.30459664e-05 2.84538510e-05 0. 0. -2.03709242e-05 7.84872191e-06
      2.52773825e-05 8.32209553e-05 8.43006055e-05 9.06703644e-06 0. 0.
      0. 0. 0. 0. 1.20599325e-05 8.15254316e-05 9.95001101e-05
      2.56869116e-05 1.00175879e-04 8.43006055e-05 9.06703644e-06 0. 0.
      0. 0. 9.06703644e-06 8.15254316e-05 9.67366286e-05 7.18995361e-05
      1.96951532e-05 1.96951532e-05 6.11324140e-05 2.37801196e-05
      -2.22161816e-05 -3.04300174e-05 -2.09964473e-05 -1.52864300e-06
      2.73249370e-05 5.04628006e-05 2.12171253e-05 1.96951532e-05</_>
    <_>
      2.71050543e-20 2.71050543e-20 2.71050543e-20 -1.08110777e-04
      -7.04221238e-05 -4.18394920e-05 -3.65271917e-05 -4.73449618e-05
      2.94877700e-05 2.71050543e-20 2.71050543e-20 2.71050543e-20
      2.71050543e-20 2.71050543e-20 4.31228545e-05 4.57616534e-06 0. 0.
      0. 0. 1.08998074e-05 3.26049412e-05 1.38399391e-05 2.71050543e-20
      2.71050543e-20 8.98041544e-05 4.57616534e-06 0. 0. 0. 0. 0. 0.
      3.35867735e-05 8.84978144e-05 2.71050543e-20 -6.63231185e-05
      2.43502418e-05 0. 0. 0. 1.90638511e-05 4.70906489e-05
      5.30299394e-06 0. 0. 3.02478820e-05 1.72890097e-04 -7.42286065e-05
      2.80267977e-05 0. 0. -3.74370793e-05 2.71050543e-20 2.71050543e-20
      -4.92754989e-05 2.80267977e-05 0. 3.35867735e-05 7.68762911e-05
      -5.74750920e-05 -1.36699833e-04 -1.36699833e-04 -7.89568730e-05
      -9.87915973e-06 2.71050543e-20 2.71050543e-20 2.71050543e-20
      -1.89812399e-05 0. 0. 3.02478820e-05 -9.07159265e-05
      -2.03197022e-04 -1.61357530e-04 -5.65075716e-05 -5.30299394e-06
      2.71050543e-20 2.71050543e-20 1.36699833e-04 2.70881901e-05 0. 0.
      3.02478820e-05 -1.37344337e-04 -2.36437860e-04 -2.36437860e-04
      -5.65075716e-05 2.71050543e-20 1.36699833e-04 1.36699833e-04
      1.66945043e-04 6.55067561e-05 0. 0. -1.17269716e-04
      -1.80810268e-04 -2.36437860e-04 -2.36437860e-04 -5.65075716e-05
      1.36699833e-04 1.36699833e-04 1.50539767e-04 2.36437860e-04
      1.25628168e-04 0. -4.18394920e-05 -1.36697156e-04 -1.84506454e-04
      -2.36437860e-04 -2.36437860e-04 -5.65075716e-05 2.71050543e-20
      1.50539767e-04 2.36437860e-04 2.36437860e-04 1.25628168e-04 0.
      -6.64972031e-05 -1.97937261e-04 -9.07159265e-05 -2.36437860e-04
      -2.36437860e-04 -4.26676306e-05 1.94274453e-05 9.97380339e-05
      9.97380339e-05 9.97380339e-05 7.89997503e-05 -6.64972031e-05
      -9.97380339e-05 -6.61512604e-05 -9.07159265e-05 -2.36437860e-04
      -2.22597926e-04 -4.19653861e-06 9.97380339e-05 9.97380339e-05
      9.97380339e-05 9.97380339e-05 -1.50982460e-05 -9.97380339e-05
      -9.97380339e-05 -2.76506580e-05 -9.07159265e-05 -2.22597926e-04
      -1.78539325e-04 -2.58901273e-05 8.98588769e-05 9.97380339e-05
      9.97380339e-05 3.32408345e-05 -1.90341903e-04 -9.97380339e-05
      -8.58980929e-05 -2.76506580e-05 -7.98161127e-05 -8.50970173e-06 0.
      -1.36699833e-04 1.56296664e-05 9.44350395e-05 6.41898223e-05
      -4.38035968e-05 -7.17112343e-05 -7.50803301e-05 -4.18394920e-05
      -1.38107189e-05 1.03964485e-04 6.55067561e-05 0. 0. 0.
      1.13402886e-04 3.83500956e-05 -6.94928167e-05 -2.76533265e-05 0.
      7.20873722e-05 1.29900800e-04 5.78985382e-05 1.09993336e-04
      5.30299394e-06 0. 0. 0. 0. 0. 0. 2.76007959e-05 7.73903666e-05
      5.78985382e-05 7.50803301e-05 1.70114741e-04 1.09993336e-04
      5.30299394e-06 0. 0. 0. 0. 5.30299394e-06 7.73903666e-05
      8.62450397e-05 7.50803301e-05 5.58750753e-06 7.50803301e-05
      -4.73578939e-06 1.28222491e-05 -3.96077940e-06 -1.93547130e-05
      -2.46577074e-05 -8.45490467e-06 -6.55510594e-05 6.15873287e-05
      7.50803301e-05 2.76533265e-05</_>
    <_>
      -2.71050543e-20 -2.71050543e-20 -2.71050543e-20 -4.46523700e-05
      -7.93883664e-05 -1.18275893e-05 -2.09018026e-06 -3.48286230e-05
      2.61425066e-06 -2.71050543e-20 -2.71050543e-20 -2.71050543e-20
      -2.71050543e-20 4.72205611e-05 2.76012270e-05 0. 0. 0. 0. 0.
      -2.09018026e-06 4.57980932e-05 -2.71050543e-20 -2.71050543e-20
      -2.71050543e-20 7.00852033e-05 0. 0. 0. 0. 0. 0. 0. 4.31718072e-05
      5.60260778e-05 -2.71050543e-20 -4.85037781e-05 3.08024610e-05 0.
      0. -7.96069144e-05 -4.86926037e-05 -1.85711178e-05 9.34062882e-06
      0. 0. 7.95230007e-05 7.50113177e-05 -7.38874223e-05
      -7.31490072e-05 0. -1.20601690e-04 -6.84693005e-05 -2.71050543e-20
      -2.71050543e-20 -1.96131750e-05 1.82854965e-05 0. 4.05218925e-05
      -9.07840695e-06 -8.68493516e-05 -2.17182795e-04 -2.12315732e-04
      -1.11975889e-04 -9.34062882e-06 -2.71050543e-20 -2.71050543e-20
      4.98275149e-05 4.71437343e-05 0. -2.64991513e-06 -3.07387563e-05
      -8.68493516e-05 -2.32234917e-04 -2.32234917e-04 -3.10009746e-05
      -9.34062882e-06 -2.71050543e-20 5.90481468e-05 1.59082701e-04
      4.71437343e-05 0. -2.64991513e-06 -5.83395558e-05 -1.08509703e-04
      -2.32234917e-04 -2.32234917e-04 -2.52974969e-05 9.14345001e-05
      1.48962034e-04 1.76294663e-04 2.32234917e-04 8.05534000e-05 0.
      -1.13602029e-04 -9.70398396e-05 -1.61022137e-04 -2.32234917e-04
      -2.32234917e-04 -2.26475822e-05 1.21860015e-04 2.32234917e-04
      2.32234917e-04 2.32234917e-04 9.65102736e-05 0. -8.18351473e-05
      -1.42691511e-04 -2.06937417e-04 -2.32234917e-04 -2.32234917e-04
      -2.52974969e-05 1.77020265e-05 9.60921388e-05 1.85014345e-04
      2.32234917e-04 9.65102736e-05 0. -1.44775040e-05 -7.24818019e-05
      -9.25528366e-05 -2.32234917e-04 -2.32234917e-04 -3.10009746e-05
      -2.71050543e-20 -2.71050543e-20 1.18275893e-05 1.13927716e-04
      8.05534000e-05 0. 0. 2.39307665e-05 -8.68493516e-05
      -2.32234917e-04 -2.32234917e-04 -3.10009746e-05 -2.71050543e-20
      -2.71050543e-20 -2.71050543e-20 7.41345093e-06 -6.95945710e-05 0.
      0. 7.50659019e-05 -8.68493516e-05 -2.32234917e-04 -2.32234917e-04
      -1.02213751e-04 -9.34062882e-06 -2.71050543e-20 -2.71050543e-20
      -7.68162045e-06 -9.77624513e-05 0. 0. 5.71570527e-05
      -7.38874223e-05 -7.54656721e-05 -1.40800403e-04 -1.85014345e-04
      -6.44106476e-05 -9.34062882e-06 -9.34062882e-06 -2.18767709e-05
      -2.66758161e-05 0. 0. 2.06716777e-05 5.08331505e-05 8.05534000e-05
      -5.59402397e-05 -8.32728692e-05 -1.01463876e-04 1.55953567e-05
      2.07360354e-05 -4.56516682e-05 0. 0. 9.45751090e-05 7.90852282e-05
      1.24178303e-04 1.42390621e-04 9.34062882e-06 0. 0. 0. 0. 0. 0.
      3.34096694e-05 1.34211814e-05 4.56516682e-05 8.32728692e-05
      5.50769983e-05 6.27837071e-05 9.34062882e-06 0. 0. 0. 0.
      -3.78799305e-05 -2.78417629e-05 4.56516682e-05 -2.71050543e-20
      -2.71050543e-20 5.59402397e-05 3.58943216e-05 -3.62907776e-05
      -3.21764492e-05 -3.21764492e-05 -4.15170798e-05 -6.34284661e-05
      -3.33193348e-05 4.56516682e-05 -2.71050543e-20 -2.71050543e-20</_>
    <_>
      -5.08219768e-21 -5.08219768e-21 -5.08219768e-21 -1.52501516e-05
      -7.70849801e-05 -7.43502897e-05 -1.82744370e-05 3.48325534e-06
      8.48751588e-05 8.21959911e-05 2.41755297e-05 -5.08219768e-21
      -5.08219768e-21 -5.08219768e-21 -9.99760596e-06 -1.08833090e-04
      -1.34579095e-04 -6.22875450e-05 0. 0. 0. 8.53859601e-05
      2.80541044e-05 -5.08219768e-21 -5.08219768e-21 -9.99760596e-06
      -1.19839751e-04 -1.34579095e-04 -1.32847854e-04 -1.72615582e-05 0.
      0. 0. 2.47435196e-06 3.64076586e-05 -5.08219768e-21
      -5.10801897e-07 -7.43502897e-05 -1.34579095e-04 -1.34579095e-04
      -2.20024122e-05 3.69281406e-05 3.69281406e-05 3.69281406e-05 0. 0.
      -5.69435870e-05 -3.69281406e-05 -2.54174920e-05 -1.08833090e-04
      -1.34579095e-04 -9.22878680e-05 2.54174920e-05 1.34579095e-04
      1.19839751e-04 6.26741530e-05 0. 0. -4.65039520e-05
      -6.26741530e-05 -2.54174920e-05 -1.08833090e-04 -1.34579095e-04
      1.08607746e-05 7.19049494e-05 1.34579095e-04 1.34579095e-04
      1.19159216e-04 6.26741530e-05 0. -6.03810258e-05 -6.51560476e-05
      -5.71656019e-05 -1.34579095e-04 -5.11404614e-05 2.67440046e-05
      7.19049494e-05 1.34579095e-04 6.22794032e-05 1.34579095e-04
      6.26741530e-05 0. -6.03810258e-05 -8.24176022e-05 -5.71656019e-05
      -1.16463401e-04 0. 2.67440046e-05 1.34579095e-04 1.04578772e-04
      5.84008303e-05 1.34579095e-04 6.26741530e-05 0. -6.03810258e-05
      -8.24176022e-05 -1.34579095e-04 -6.18990380e-05 0. 2.72548059e-05
      1.34579095e-04 4.91602659e-05 3.03806974e-05 8.92974058e-05
      7.74134969e-05 0. -6.03810258e-05 -9.76677547e-05 -8.45236864e-05
      0. 0. 2.72548059e-05 7.73936335e-05 -5.08219768e-21 3.03806974e-05
      8.54188329e-05 9.28333830e-05 0. -6.03810258e-05 -1.30700530e-04
      6.92781077e-06 0. 0. 2.67440046e-05 1.04578772e-04 5.92970791e-05
      5.92970791e-05 1.34579095e-04 9.28333830e-05 0. -6.03810258e-05
      -5.25218275e-05 7.74134969e-05 0. 0. 2.67440046e-05 1.34579095e-04
      1.34579095e-04 1.34579095e-04 1.34579095e-04 6.26741530e-05 0. 0.
      6.36091318e-06 9.71569534e-05 0. 0. 2.67440046e-05 9.76509618e-05
      1.34579095e-04 1.34579095e-04 1.34068294e-04 2.57460106e-05 0. 0.
      6.36091318e-06 1.38206879e-05 1.80658844e-06 -3.12429765e-05 0.
      3.69113441e-05 9.76509618e-05 9.76509618e-05 4.54894653e-05 0. 0.
      2.47435196e-06 4.15242539e-05 -5.08219768e-21 -5.71656019e-05
      -1.34579095e-04 -8.41146830e-05 -5.37339838e-05 1.11655690e-05
      1.11655690e-05 2.57460106e-05 0. 0. 6.23048027e-06 6.65677653e-05
      -5.08219768e-21 -1.59306892e-05 -9.76509618e-05 -1.34579095e-04
      -1.18435528e-04 -3.00003285e-05 -3.00003285e-05 0. 0.
      9.48680372e-06 4.36694208e-05 8.64630711e-05 -5.08219768e-21
      -5.08219768e-21 -4.76787973e-05 -9.76509618e-05 -1.06558968e-04
      -3.00003285e-05 -3.00003285e-05 0. 4.64149416e-05 7.36697475e-05
      8.64630711e-05 7.41980766e-05 -5.08219768e-21 -5.08219768e-21
      -5.08219768e-21 -3.06700385e-05 -8.81641608e-05 -6.78995857e-05
      -2.13758030e-05 4.64149416e-05 7.36697475e-05 1.03336126e-04
      7.33357956e-05 6.94572227e-05</_>
    <_>
      -1.52465931e-20 1.32345913e-05 1.17159849e-04 6.48974965e-05
      -6.24333843e-05 -3.78967852e-05 -1.26842565e-06 -5.50952518e-06
      8.03570729e-05 6.37238772e-05 -1.52465931e-20 -1.52465931e-20
      -1.52465931e-20 1.35703303e-04 1.29625638e-04 1.81652467e-05 0. 0.
      0. 0. 1.18873477e-05 3.88654735e-05 5.04892887e-05 -1.52465931e-20
      2.35913308e-06 4.95832828e-05 0. 0. 0. 0. 0. 0. 0. 5.20128742e-05
      -2.32753155e-06 -1.52465931e-20 2.11961342e-05 2.66773968e-05 0.
      0. 0. -3.87144155e-06 1.50044707e-05 -1.29569353e-05
      -5.35285471e-05 -6.67631393e-05 -1.21025492e-04 -4.05716091e-05
      -1.00346788e-05 -2.53354756e-05 0. 0. 1.75639652e-05
      -1.52465931e-20 -1.52465931e-20 -9.53872877e-05 -1.87278900e-04
      -2.06154815e-04 -1.54141933e-04 -8.97946811e-05 -2.21782811e-05
      -4.42113887e-05 0. 3.31547526e-05 1.06763560e-04 5.03967130e-05
      3.72409413e-05 -1.21436015e-05 -1.40429387e-04 -2.06154815e-04
      -2.06154815e-04 -1.01682032e-04 -2.21782811e-05 -5.04892887e-05 0.
      1.16187141e-04 1.59305302e-04 2.06154815e-04 1.83977347e-04
      1.41071083e-04 -2.18719106e-05 -1.55665519e-04 -2.06154815e-04
      -1.13825634e-04 -3.40656297e-05 -8.77302300e-05 0. 1.16187141e-04
      2.06154815e-04 2.06154815e-04 2.06154815e-04 2.06154815e-04
      7.48109160e-05 -5.25417381e-05 -1.55665519e-04 -1.13825634e-04
      -1.35287148e-04 -8.77302300e-05 0. 1.28074491e-04 2.06154815e-04
      2.06154815e-04 2.06154815e-04 2.06154815e-04 7.48109160e-05 0.
      -1.26747391e-05 -1.45056445e-04 -1.65583202e-04 -1.40734934e-04
      -6.67631393e-05 4.21454497e-05 2.59342214e-05 -1.52465931e-20
      -1.52465931e-20 1.05189989e-04 7.48109160e-05 0. -9.63547973e-06
      -6.20104111e-05 -8.56089173e-05 -2.06154815e-04 -2.06154815e-04
      -7.80803239e-05 -1.52465931e-20 -1.52465931e-20 -1.52465931e-20
      4.29062602e-05 -1.29193122e-05 0. 0. 3.07019473e-05
      -7.93310246e-05 -2.06154815e-04 -2.06154815e-04 -8.99676670e-05
      -1.52465931e-20 -1.52465931e-20 -1.52465931e-20 -1.52465931e-20
      -5.91381504e-05 0. 0. 9.23291809e-05 -6.74436742e-05
      -2.06154815e-04 -2.06154815e-04 -1.17929078e-04 -4.05716091e-05
      -1.52465931e-20 -1.52465931e-20 -1.52465931e-20 -5.94295634e-05 0.
      0. 9.23291809e-05 -7.46336264e-06 -6.30316135e-05 -1.26235900e-04
      -1.42430930e-04 -5.59350046e-05 -4.05716091e-05 -3.75323507e-05
      -3.95955467e-05 -3.30154921e-06 0. 0. 4.88917831e-05
      1.58025330e-04 7.48109160e-05 0. -7.47192025e-05 -8.66358241e-05
      1.97551544e-05 -3.74632646e-06 6.24862241e-06 0. 0. 5.80591077e-05
      2.78161879e-05 1.15385323e-04 1.26823783e-04 4.05716091e-05 0. 0.
      0. 0. 0. 0. 9.08549373e-06 -1.51289842e-05 -1.52465931e-20
      6.44583633e-05 7.81602939e-05 8.95828489e-05 4.05716091e-05 0. 0.
      0. 0. 2.74158374e-05 -2.59253429e-05 -1.52465931e-20
      -1.52465931e-20 -1.52465931e-20 4.29062602e-05 5.15334614e-05
      -4.62982425e-05 1.41812452e-05 2.73370188e-05 -1.32345913e-05
      -2.84580874e-05 -3.91892099e-05 -1.52465931e-20 -1.52465931e-20
      -1.52465931e-20</_>
    <_>
      2.03287907e-20 2.03287907e-20 2.03287907e-20 -2.42450878e-05
      -1.46797320e-04 -7.97133180e-05 -2.69512002e-05 1.49277821e-05
      2.06427911e-04 1.82580785e-04 5.73663092e-05 2.32846396e-05
      2.03287907e-20 2.03287907e-20 -6.89433145e-05 -1.24912782e-04
      -7.42019838e-05 -3.28452188e-05 0. 0. 1.17487307e-05
      1.44215461e-04 2.04584227e-04 5.73663092e-05 2.03287907e-20
      -5.62795612e-05 -1.66635145e-04 -2.46945074e-05 0. 0. 0. 0. 0.
      3.65853048e-05 1.62371362e-04 6.64819454e-05 2.03287907e-20
      -1.26991668e-04 -5.48486569e-05 0. 0. -4.87343932e-05
      -4.87343932e-05 -9.18866644e-05 -1.57612027e-04 -1.57612027e-04
      -3.07401206e-05 -1.33876592e-05 -7.53803470e-05 -3.79384401e-05 0.
      0. 9.41332837e-05 1.77752940e-04 5.21575857e-05 -7.85895099e-05
      -2.78786203e-04 -2.78786203e-04 -2.42988463e-04 -1.55602756e-04
      -7.58772585e-05 -2.88228057e-05 0. 0. 2.69797329e-05
      4.05476385e-05 2.03287907e-20 -2.51899710e-05 -1.61307107e-04
      -2.78786203e-04 -2.78786203e-04 -1.70042549e-04 2.37832555e-05 0.
      0. 5.19464775e-05 1.01270416e-04 6.00573803e-05 6.00573803e-05
      6.64819454e-05 -1.49401763e-04 -2.78786203e-04 -2.78786203e-04
      -1.70042549e-04 1.20345248e-05 0. 0. 5.19464775e-05 2.78786203e-04
      2.48632074e-04 2.78786203e-04 2.78786203e-04 8.81125015e-05
      -7.42019838e-05 -2.55501567e-04 -1.70042549e-04 -7.90298654e-05 0.
      0. 6.44827596e-05 2.78786203e-04 2.78786203e-04 2.78786203e-04
      2.78786203e-04 1.18266646e-04 0. -9.00551167e-05 -1.89744402e-04
      -5.15654165e-06 0. 0. 8.26386677e-05 2.78786203e-04 1.87494647e-04
      6.59664511e-05 2.32537699e-04 1.43456622e-04 0. -3.01541477e-05
      -1.21174184e-04 3.73787079e-05 0. 0. 6.44827596e-05 9.09352166e-05
      2.03287907e-20 2.03287907e-20 7.15109127e-05 8.60903092e-05 0. 0.
      -4.19561729e-05 6.07328730e-05 0. 0. 5.19464775e-05 2.03287907e-20
      2.03287907e-20 2.03287907e-20 4.13567650e-05 3.62058308e-05 0. 0.
      3.80447163e-05 6.27176560e-05 0. 0. 5.19464775e-05 -1.33876592e-05
      2.03287907e-20 2.03287907e-20 4.13567650e-05 1.37025372e-05 0. 0.
      5.50368022e-05 8.38811247e-05 1.33876592e-05 0. 0. -5.23509989e-05
      2.06940113e-05 -1.33876592e-05 -1.01075739e-05 -3.31212359e-05 0.
      0. 5.46535557e-06 9.32229159e-06 6.86033745e-05 0. 0. 0.
      -2.43191607e-05 1.47592891e-05 -7.67721504e-05 0. 0.
      5.19464775e-05 5.35205872e-05 2.03287907e-20 5.02363764e-05
      1.33876592e-05 0. 0. 0. 0. 0. 0. 0. 2.94475808e-06 1.11177978e-05
      2.03287907e-20 2.03287907e-20 2.02934575e-06 -2.33850787e-05 0. 0.
      0. 0. 1.33876592e-05 5.04046548e-05 4.91510546e-05 2.03287907e-20
      2.03287907e-20 2.03287907e-20 2.03287907e-20 -3.71296301e-05
      -4.42668243e-05 -2.33850787e-05 -1.58531329e-05 -3.31490264e-05
      7.34531750e-06 2.03287907e-20 2.03287907e-20 2.03287907e-20</_>
    <_>
      2.23850984e-05 2.59042681e-05 9.43359046e-05 2.85101651e-05
      -1.79864310e-05 -4.49674662e-05 -3.05002068e-05 -1.44672613e-05
      -2.11398074e-05 4.94046253e-05 4.58854556e-05 8.35738774e-06
      6.03165281e-05 1.32303525e-04 7.01763202e-05 0. 0. 0. 0. 0. 0.
      9.61274272e-05 1.32303525e-04 7.63856588e-05 1.01803314e-04
      9.45930078e-05 0. 0. 0. 0. 0. 0. 0. 9.61750175e-06 9.61274272e-05
      9.43720879e-05 7.32704793e-05 4.25133912e-05 0. 0. 1.51429676e-05
      6.72225869e-05 6.72225869e-05 2.76629307e-05 0. 0. 6.69300789e-05
      1.01121419e-04 2.12846644e-05 -8.35738774e-06 -1.18765574e-05
      -8.73360550e-05 -3.72804316e-05 3.38813179e-21 3.38813179e-21
      -3.88148510e-05 -2.35003554e-05 0. 9.61750175e-06 5.46768279e-05
      -3.77105134e-05 -1.17836258e-04 -1.01803314e-04 -4.29774263e-05
      -2.76629307e-05 3.38813179e-21 3.38813179e-21 -2.35003554e-05
      1.36352201e-05 0. -3.79314297e-05 2.41766211e-05 -3.77105134e-05
      -1.32303525e-04 -1.32303525e-04 -3.33599237e-05 -2.76629307e-05
      3.38813179e-21 3.38813179e-21 5.23986891e-05 2.76629307e-05 0.
      -3.79314297e-05 -1.37909956e-05 -9.50230897e-05 -1.32303525e-04
      -1.32303525e-04 -3.33599237e-05 3.38813179e-21 3.38813179e-21
      3.38813179e-21 1.18275813e-04 6.05588175e-05 0. -3.79314297e-05
      -5.96764512e-05 -1.32303525e-04 -1.32303525e-04 -1.32303525e-04
      -3.33599237e-05 3.38813179e-21 3.38813179e-21 3.38813179e-21
      1.32303525e-04 8.49755088e-05 0. -5.59178588e-05 -5.96764512e-05
      -1.04640589e-04 -1.32303525e-04 -1.32303525e-04 -3.33599237e-05
      3.38813179e-21 3.38813179e-21 5.23986891e-05 1.32303525e-04
      6.05588175e-05 -3.79314297e-05 -1.32303525e-04 -1.07886837e-04
      -9.50230897e-05 -1.32303525e-04 -1.32303525e-04 -3.33599237e-05
      3.38813179e-21 3.38813179e-21 8.64180693e-05 1.32303525e-04
      6.05588175e-05 -4.14505994e-05 -1.32303525e-04 -9.25723361e-05
      -3.77105134e-05 -1.32303525e-04 -1.32303525e-04 -3.33599237e-05
      3.38813179e-21 3.38813179e-21 1.32303525e-04 1.32303525e-04
      2.76629307e-05 -7.19508025e-05 -1.32303525e-04 -3.61760940e-05
      -3.77105134e-05 -1.32303525e-04 -1.32303525e-04 -6.62558159e-05
      -2.76629307e-05 4.14505994e-05 1.32303525e-04 1.08803164e-04 0.
      -1.32303525e-04 -9.94076327e-05 -3.61760940e-05 -3.20135186e-05
      -7.17447037e-05 -1.32303525e-04 -1.32303525e-04 -8.49755088e-05
      3.61727652e-05 7.17447037e-05 1.81306659e-05 -1.44672613e-05
      -1.32303525e-04 -9.94076327e-05 -3.61760940e-05 -8.51316327e-06
      -4.73280161e-05 -1.32303525e-04 -1.32303525e-04 -9.43720879e-05
      -5.36969083e-06 8.51316327e-06 0. -6.84678234e-05 -1.32303525e-04
      -3.61760940e-05 3.38813179e-21 3.38813179e-21 -8.51316327e-06
      -1.04640589e-04 -1.32303525e-04 -9.43720879e-05 -2.35003554e-05 0.
      0. -1.32303525e-04 -4.57935967e-05 -8.51316327e-06 3.38813179e-21
      3.38813179e-21 -8.51316327e-06 -8.51316327e-06 -1.04640589e-04
      -9.43720879e-05 -2.35003554e-05 0. -4.49674662e-05 -9.89435939e-05
      -8.51316327e-06 3.38813179e-21 3.38813179e-21 3.38813179e-21
      3.38813179e-21 -8.51316327e-06 -1.81306659e-05 -4.25473518e-05
      -3.46950183e-05 -8.77026741e-06 -3.41899649e-05 -8.51316327e-06
      3.38813179e-21 3.38813179e-21 3.38813179e-21</_>
    <_>
      3.04931861e-20 5.66987874e-05 6.83572944e-05 1.25068429e-04
      -1.27452135e-04 -1.11305089e-04 -3.90856712e-06 -1.26901679e-04
      -4.22582125e-05 3.04931861e-20 3.04931861e-20 3.04931861e-20
      5.66987874e-05 6.83572944e-05 -7.84584117e-05 -7.04950144e-05 0.
      0. 0. 0. 3.40873048e-05 1.85239114e-05 7.59858303e-05
      3.04931861e-20 6.83572944e-05 -3.59440201e-05 1.64545872e-05 0. 0.
      0. 0. 0. 0. 3.40873048e-05 1.41016921e-04 3.04931861e-20
      8.89965158e-05 4.38387688e-05 0. 0. -9.56357107e-05 2.16746394e-05
      9.20523598e-05 1.03674874e-05 0. 0. 3.40873048e-05 2.97298131e-04
      8.72964301e-06 2.73841815e-05 0. -5.66987874e-05 7.48648672e-05
      1.44784368e-04 3.04931861e-20 -6.93905386e-05 0. 0. 0.
      5.96037789e-05 3.94689159e-05 1.85070712e-05 0. 2.76185915e-06
      5.16411892e-05 3.04931861e-20 3.04931861e-20 9.61006881e-05
      -1.14085648e-04 0. 0. 8.92772514e-05 -1.03520233e-05 0. 0.
      9.35479547e-05 6.95510680e-05 3.04931861e-20 5.66987874e-05
      2.02938449e-04 -5.98003908e-06 0. -5.66987874e-05 3.81928403e-05
      -5.84440522e-06 0. 0. 9.35479547e-05 3.88569693e-04 3.47090972e-04
      3.33522534e-04 4.16188181e-04 1.20466873e-04 0. -5.66987874e-05
      -1.38524774e-04 -2.63052701e-04 -1.07394635e-05 0. 1.18734933e-04
      5.61261200e-04 5.61261200e-04 5.61261200e-04 5.61261200e-04
      1.45786384e-04 0. -1.06375170e-04 -2.61623849e-04 -2.46786512e-04
      -1.07394635e-05 0. 1.33331312e-04 5.61261200e-04 5.61261200e-04
      4.16476862e-04 4.16476862e-04 1.45786384e-04 0. -8.07557080e-05
      -3.36942991e-04 -1.91346058e-04 0. 0. 3.74637384e-05
      3.60409933e-04 2.03430798e-04 2.14170257e-04 3.48119560e-04
      1.20466873e-04 0. 0. -2.24422241e-04 8.72964301e-06 0. 0.
      3.68491637e-05 1.46239661e-04 3.04931861e-20 3.04931861e-20
      5.98130355e-05 9.37577497e-05 0. 0. -7.94753360e-05 1.94691074e-05
      0. 0. -8.89664716e-06 7.01482568e-05 1.44784368e-04 1.44784368e-04
      1.31781766e-04 -8.19935740e-05 0. 0. -2.75834609e-05
      9.30194074e-05 4.93044099e-05 0. 0. -6.32109732e-05 6.87708307e-05
      9.54799543e-05 -2.50181474e-05 0. 0. 0. -2.54332281e-05
      1.05988896e-04 1.19852302e-04 0. 0. -2.42704336e-05 4.11730325e-05
      1.59628380e-05 -1.17688876e-04 0. 0. 6.30367140e-05 1.21001394e-04
      1.26715036e-04 9.75479925e-05 4.93044099e-05 0. 0. 0. 0. 0. 0.
      2.89494074e-05 1.54100591e-04 1.14333779e-04 5.66987874e-05
      1.11571921e-04 2.01955590e-05 4.93044099e-05 0. 0. 0. 0.
      1.21133176e-04 -3.87459477e-05 1.13719208e-04 3.04931861e-20
      3.04931861e-20 5.66987874e-05 4.03849335e-05 -1.01410573e-04
      -7.95154047e-05 -1.55922062e-05 -1.04025708e-06 1.49644566e-05
      2.29418092e-05 -6.14573764e-07 3.04931861e-20 3.04931861e-20</_>
    <_>
      -8.13151629e-20 -8.13151629e-20 4.29310094e-05 2.34170911e-05
      -9.02864995e-05 -4.25898652e-05 -4.25898652e-05 -7.38311282e-05
      -4.14886126e-05 -8.13151629e-20 -8.13151629e-20 -8.13151629e-20
      -8.13151629e-20 4.29310094e-05 5.77974388e-05 0. 0. 0. 0.
      -4.25898652e-05 -9.03747150e-06 1.82304393e-05 -8.13151629e-20
      -8.13151629e-20 4.29310094e-05 -4.11732144e-05 0. 0. 0. 0. 0. 0.
      0. 0. 4.35555557e-05 -8.13151629e-20 2.77433865e-05 0. 0. 0.
      6.71927592e-06 4.71032836e-05 5.61269917e-05 4.94077176e-05 0. 0.
      1.32195446e-05 5.69491203e-05 -2.75705024e-05 0. 0.
      -1.99033966e-05 3.57574208e-05 -8.13151629e-20 1.36987819e-05
      -4.66502279e-05 0. 0. 0. 1.34720349e-05 6.83244252e-06 0. 0.
      -3.64415428e-06 -4.94077176e-05 -8.13151629e-20 -8.13151629e-20
      -3.72079339e-05 -2.48977994e-05 0. 0. 5.84620502e-05
      5.90619202e-05 0. 0. -3.64415428e-06 -4.94077176e-05
      -8.13151629e-20 -8.13151629e-20 1.08796876e-05 3.31879437e-06 0.
      0. 6.08687260e-05 -8.16395259e-05 0. 0. 8.50103097e-05
      8.35297324e-05 -8.13151629e-20 1.08796876e-05 1.06092361e-04
      7.76243105e-05 0. 0. 2.82539750e-05 -1.12492067e-04
      -1.28518168e-05 0. 1.02107326e-04 2.01358052e-04 9.71987392e-05
      1.20301629e-04 2.61044945e-04 9.48367378e-05 0. 0. 2.82539750e-05
      -1.66208192e-04 -1.38381511e-04 0. 1.02107326e-04 2.61044945e-04
      2.61044945e-04 2.61044945e-04 2.61044945e-04 9.48367378e-05 0. 0.
      -9.02370812e-06 -1.66208192e-04 -2.61044945e-04 -1.07199317e-04
      8.38593987e-05 2.61044945e-04 2.61044945e-04 2.61044945e-04
      2.61044945e-04 7.76243105e-05 0. 0. 1.73742865e-05 -1.66208192e-04
      -2.61044945e-04 -2.61044945e-04 -1.10341869e-04 6.22945154e-05
      8.51229124e-05 1.13099617e-04 2.50895799e-04 4.94077176e-05 0.
      -1.99033966e-05 -2.10521830e-05 -1.66208192e-04 -2.61044945e-04
      -2.61044945e-04 -1.58937604e-04 -4.94077176e-05 1.70970197e-05
      5.63737813e-05 2.10138212e-04 0. 0. -4.37513227e-05
      -4.68099970e-05 -6.94925766e-05 -2.00757524e-04 -2.50165234e-04
      -2.61044945e-04 -6.97052019e-05 6.51648861e-07 1.31325825e-04
      7.77136665e-05 0. 0. -9.78786848e-05 -2.45992760e-05
      2.71537247e-05 5.18064689e-06 -6.22945154e-05 -6.22945154e-05
      -6.22945154e-05 2.62787726e-05 3.22846463e-05 0. -1.08796876e-05
      -5.21285765e-05 -1.27121384e-04 -1.72124310e-05 8.31960133e-05
      1.41725177e-04 4.94077176e-05 0. 0. 0. 0. -1.08796876e-05
      -6.51474111e-05 -1.96944064e-04 -4.94970736e-05 -8.13151629e-20
      1.40040938e-04 2.06884768e-04 1.41725177e-04 4.94077176e-05 0. 0.
      -3.27552152e-05 -6.51474111e-05 -1.47536353e-04 -4.94970736e-05
      -8.13151629e-20 -8.13151629e-20 -8.13151629e-20 1.11442860e-04
      1.69383842e-04 1.32207962e-04 6.76944182e-05 -1.89530656e-05
      -1.49022817e-04 -8.21118228e-05 -4.94970736e-05 -8.13151629e-20
      -8.13151629e-20 -8.13151629e-20</_>
    <_>
      2.03287907e-20 2.03287907e-20 -3.50256087e-05 7.93575964e-05
      -1.96986548e-05 -3.27200287e-05 2.77383378e-06 1.38350706e-05
      -3.67563080e-05 2.03287907e-20 2.03287907e-20 2.03287907e-20
      2.03287907e-20 1.89342754e-05 -6.71418238e-05 -4.16976982e-05 0.
      0. 0. 6.01207139e-05 1.34655827e-04 1.66341924e-04 2.03287907e-20
      2.03287907e-20 -3.35814511e-05 -6.71418238e-05 0. 0. 0. 0. 0.
      6.01207139e-05 1.43591096e-04 2.36826731e-04 1.72346772e-04
      2.03287907e-20 -1.08457119e-04 -5.72838180e-05 0. 0.
      -2.01067196e-05 -2.01067196e-05 -2.01067196e-05 4.00139943e-05
      1.43591096e-04 2.36826731e-04 2.01133880e-04 3.63725958e-05
      -9.32356197e-05 7.43020719e-05 -9.93108006e-06 -3.00377997e-05
      -1.38484640e-04 -2.36826731e-04 -1.42550241e-04 -4.69915685e-05
      1.01893405e-04 2.36826731e-04 2.36826731e-04 8.70055592e-05
      -9.32356197e-05 4.43732279e-05 1.06177642e-04 5.72838180e-05
      -9.61382248e-05 -2.36826731e-04 -1.42550241e-04 -8.24295275e-05
      7.31062974e-05 2.36826731e-04 2.36826731e-04 1.07112282e-04
      2.03287907e-20 1.98518374e-05 1.55861217e-05 2.03287907e-20
      -9.61382248e-05 -1.93141619e-04 -1.42550241e-04 -4.60569318e-05
      1.01893405e-04 2.36826731e-04 2.36826731e-04 7.80702903e-05
      2.03287907e-20 2.03287907e-20 2.03287907e-20 2.03287907e-20
      -9.61382248e-05 -1.32205227e-04 -1.06177642e-04 -6.09837480e-06
      1.43591096e-04 2.36826731e-04 2.16720000e-04 4.16976982e-05
      2.03287907e-20 2.03287907e-20 2.03287907e-20 2.03287907e-20
      -7.49871251e-05 -1.32205227e-04 -6.62190869e-05 6.01207139e-05
      1.43591096e-04 2.36826731e-04 9.79221295e-05 2.03287907e-20
      2.03287907e-20 2.03287907e-20 2.03287907e-20 2.03287907e-20
      -1.08457119e-04 -2.78158604e-05 0. 6.01207139e-05 1.43591096e-04
      2.07784731e-04 3.63725958e-05 2.03287907e-20 2.03287907e-20
      2.03287907e-20 2.03287907e-20 2.03287907e-20 3.02348144e-06
      -3.07379087e-05 -3.63725958e-05 2.37481163e-05 1.43591096e-04
      3.63725958e-05 3.63725958e-05 3.63725958e-05 2.03287907e-20
      2.03287907e-20 2.03287907e-20 1.23318474e-04 8.90944066e-05
      -3.07379087e-05 -3.63725958e-05 2.37481163e-05 -5.68630239e-05
      3.63725958e-05 3.63725958e-05 3.63725958e-05 2.03287907e-20
      2.03287907e-20 1.23318474e-04 2.00454131e-04 8.90944066e-05
      -3.63725958e-05 -3.63725958e-05 -1.76706017e-04 -9.32356197e-05
      3.63725958e-05 3.63725958e-05 3.63725958e-05 8.93526885e-06
      1.79542898e-04 2.36826731e-04 1.85232639e-04 3.86741485e-05
      -5.64793154e-05 -1.59691073e-04 -2.15564171e-04 -5.68630239e-05
      4.53078646e-05 6.54145842e-05 3.63725958e-05 7.00449236e-05
      1.61484510e-04 1.17799413e-04 1.12164722e-04 1.89290986e-05 0.
      -1.09862602e-04 -1.09862602e-04 -9.51992188e-05 1.78882365e-05
      1.78882365e-05 2.80989607e-05 -3.30296170e-05 0. 0. 0. 0. 0. 0. 0.
      0. 0. 0. -7.20654352e-05 2.46350646e-05 0. 0. 0. 0. 0. 0. 0. 0. 0.
      -3.63725958e-05 -5.29387171e-06 1.04086189e-06 5.13564300e-05
      -1.62275830e-06 0. 4.36851078e-05 4.36851078e-05 -8.93526885e-06
      3.47498390e-05 1.35987366e-05 1.35987366e-05 4.39749747e-05
      2.38094599e-05</_>
    <_>
      1.69406589e-21 1.69406589e-21 -8.14039322e-06 4.04739330e-05
      -3.06306247e-05 2.25706754e-05 -4.36849841e-05 2.13513831e-05
      -2.51584825e-05 1.69406589e-21 1.69406589e-21 1.69406589e-21
      -2.81395000e-06 -2.86972754e-05 -2.82120945e-05 0. 0. 0. 0.
      6.09267518e-05 9.79341348e-05 5.27928933e-05 1.69406589e-21
      1.69406589e-21 3.22294763e-05 -1.86957768e-05 0. 0. 0. 0. 0.
      6.09267518e-05 9.79341348e-05 1.40495307e-04 4.05542705e-05
      1.69406589e-21 -3.16446585e-06 0. 0. 0. -3.10379546e-05
      -4.97442488e-05 -3.10379546e-05 2.98888008e-05 9.79341348e-05
      1.78874165e-04 6.08825758e-05 9.51631682e-06 -8.09400299e-05
      2.56192106e-05 -1.13106689e-05 -3.44529253e-05 -1.12641297e-04
      -1.78874165e-04 -1.21799523e-04 -1.86621201e-05 9.79341348e-05
      1.78874165e-04 1.40495307e-04 9.51631682e-06 -8.09400299e-05
      1.69406589e-21 1.69406589e-21 1.69406589e-21 -9.10627132e-05
      -1.78874165e-04 -1.78874165e-04 -7.57367598e-05 9.79341348e-05
      1.78874165e-04 1.76821777e-04 9.51631682e-06 1.69406589e-21
      1.69406589e-21 1.69406589e-21 1.69406589e-21 -5.27160300e-05
      -1.31142049e-04 -7.67330275e-05 2.46249747e-05 9.79341348e-05
      1.78874165e-04 7.85124284e-05 9.51631682e-06 1.69406589e-21
      1.69406589e-21 1.69406589e-21 1.22386227e-05 5.01435261e-06
      -2.08689726e-05 -9.51631682e-06 6.09267518e-05 9.79341348e-05
      1.78874165e-04 9.51631682e-06 9.51631682e-06 1.69406589e-21
      1.69406589e-21 1.69406589e-21 6.51643277e-05 8.56038678e-05
      2.70262099e-05 0. 6.09267518e-05 9.79341348e-05 1.09878056e-04
      9.51631682e-06 1.69406589e-21 1.69406589e-21 1.69406589e-21
      1.69406589e-21 3.83788647e-05 2.36209962e-05 8.31991383e-06 0.
      6.09267518e-05 9.79341348e-05 1.78874165e-04 4.26066545e-05
      9.51631682e-06 1.69406589e-21 1.69406589e-21 1.69406589e-21
      1.69406589e-21 -8.37539847e-05 -1.56303489e-04 -1.52088702e-04
      2.98888008e-05 9.79341348e-05 1.78874165e-04 1.78874165e-04
      9.51631682e-06 1.69406589e-21 1.69406589e-21 1.69406589e-21
      1.69406589e-21 -8.37539847e-05 -1.56303489e-04 -1.78874165e-04
      -3.73578987e-05 5.73798643e-05 1.78874165e-04 1.78874165e-04
      1.18114607e-04 1.69406589e-21 1.69406589e-21 1.69406589e-21
      1.69406589e-21 -8.37539847e-05 -1.78874165e-04 -1.78874165e-04
      -1.17947413e-04 4.92901818e-05 1.78874165e-04 1.78874165e-04
      1.78874165e-04 1.22386227e-05 2.88925330e-05 1.22386227e-05
      -9.98117230e-06 -1.08766399e-04 -1.78874165e-04 -1.49981628e-04
      -1.07770982e-04 3.60420308e-05 1.71706939e-04 1.76060217e-04
      1.13699316e-04 7.80383925e-05 1.07966240e-04 5.31518936e-06
      -1.72554846e-05 -9.81955163e-05 -9.81955163e-05 -1.76060021e-05
      -1.76060021e-05 0. 8.09400299e-05 6.22337320e-05 -8.18736771e-06
      -1.76060021e-05 0. 0. 0. 0. 0. 0. 0. 0. 0. -8.80195585e-05
      -1.69357852e-04 1.44415353e-05 -1.22386227e-05 0. 0. 0. 0. 0. 0.
      0. -1.00361736e-04 -1.59235162e-04 -1.17947413e-04 -4.25611652e-05
      1.72554846e-05 -3.80179408e-05 8.38181404e-06 1.77036836e-05
      2.78263669e-05 -2.05107190e-05 -2.46282798e-05 -2.46282798e-05
      -1.48698702e-04 -1.10677931e-04 -8.09400299e-05</_>
    <_>
      -4.06575815e-20 -4.06575815e-20 -4.06575815e-20 -3.12298034e-05
      -9.11719544e-05 -9.11719544e-05 -2.75187394e-05 8.95899802e-07
      4.20921197e-06 2.19251069e-05 -4.06575815e-20 -4.06575815e-20
      -1.33769856e-06 -1.33769856e-06 -9.68811146e-05 -1.14768249e-04
      -1.14768249e-04 -1.19395678e-04 0. 3.81281825e-05 6.40257495e-05
      6.08380506e-05 6.00215617e-06 -4.06575815e-20 -9.98879295e-06
      -8.94247860e-05 -1.20654593e-04 -1.20654593e-04 -1.20654593e-04 0.
      0. 6.89837952e-06 6.40257495e-05 6.08380506e-05 2.19251069e-05
      -4.06575815e-20 -7.11662724e-05 -8.94247860e-05 -1.20654593e-04
      -1.20654593e-04 -5.03854098e-05 0. 0. 6.89837952e-06
      6.40257495e-05 1.20654593e-04 2.19251069e-05 -4.06575815e-20
      -5.66288400e-05 -7.09890955e-05 -7.93902800e-05 -7.91434068e-05 0.
      0. 0. 6.89837952e-06 6.40257495e-05 1.20654593e-04 2.19251069e-05
      -4.06575815e-20 -5.66288400e-05 -4.06575815e-20 -4.06575815e-20
      9.95270238e-05 1.69208142e-05 0. 0. 6.89837952e-06 6.40257495e-05
      1.20654593e-04 2.19251069e-05 -4.06575815e-20 -4.06575815e-20
      -4.06575815e-20 6.10754505e-05 1.20654593e-04 1.69208142e-05
      1.97561349e-06 0. 6.89837952e-06 6.40257495e-05 1.20654593e-04
      6.00215617e-06 -4.06575815e-20 -4.06575815e-20 1.25891108e-06
      7.95082524e-05 1.20654593e-04 1.69208142e-05 7.68477457e-06
      -4.11463370e-05 6.89837952e-06 6.40257495e-05 1.20654593e-04
      6.00215617e-06 -4.06575815e-20 -4.06575815e-20 7.03145197e-05
      1.20654593e-04 1.20654593e-04 1.69208142e-05 -6.25844114e-05
      -4.11463370e-05 6.89837952e-06 6.40257495e-05 1.20654593e-04
      2.19251069e-05 -4.06575815e-20 6.90556117e-05 9.54312054e-05
      1.20654593e-04 1.20654593e-04 1.69208142e-05 -9.10447125e-05
      -5.03400697e-05 6.89837952e-06 6.40257495e-05 1.20654593e-04
      4.11463370e-05 -4.06575815e-20 7.03145197e-05 1.20654593e-04
      1.20654593e-04 1.20654593e-04 1.69208142e-05 -3.19448736e-05
      -1.92212319e-05 6.89837952e-06 6.40257495e-05 1.20654593e-04
      4.11463370e-05 2.19251069e-05 1.01433361e-04 1.20654593e-04
      1.20654593e-04 1.20654593e-04 1.69208142e-05 5.70916109e-06 0.
      6.89837952e-06 6.40257495e-05 1.20654593e-04 1.20654593e-04
      2.19251069e-05 9.87294843e-05 1.20654593e-04 1.20654593e-04
      1.20654593e-04 1.69208142e-05 0. 0. 6.89837952e-06 6.40257495e-05
      1.20654593e-04 1.20654593e-04 5.03854098e-05 -4.06575815e-20
      3.76540338e-05 3.76540338e-05 1.04731640e-04 1.49452007e-05 0. 0.
      5.88634157e-06 6.26880501e-05 1.20654593e-04 6.08380506e-05
      2.19251069e-05 -1.33769856e-06 -3.84538434e-05 -5.83165893e-05
      -6.40257495e-05 -5.95791389e-05 -2.84149646e-05 0. 0. 0.
      5.66288400e-05 3.92080765e-05 -1.13590968e-05 -1.20654593e-04
      -1.20654593e-04 -1.20654593e-04 -1.20654593e-04 -5.15989814e-05
      -6.00215617e-06 0. 0. 0. 0. 0. -3.89129455e-05 -7.93902800e-05
      -1.20654593e-04 -1.20654593e-04 -1.20654593e-04 -8.30005592e-05
      -6.00215617e-06 0. 0. 0. 0. -1.25891108e-06 -2.29472680e-05
      -5.66288400e-05 -5.66288400e-05 -6.92363828e-05 -7.15376518e-05
      -9.94541479e-05 -6.18001141e-05 2.34973686e-06 3.45431145e-05
      2.95529971e-05 -3.15224534e-05 -1.74121105e-05 -5.66288400e-05</_>
    <_>
      1.35525272e-20 1.35525272e-20 7.60880866e-05 8.42453446e-05
      2.22080726e-05 -5.55415181e-06 2.36871656e-05 7.82263305e-05
      9.26756256e-05 7.09593223e-05 1.35525272e-20 1.35525272e-20
      -2.00389641e-05 -6.07953007e-06 0. 0. 0. 0. 0. 7.48499442e-05
      9.89995460e-05 1.37609401e-04 1.62195156e-05 1.35525272e-20
      -2.58285818e-05 -3.12404154e-05 0. 0. 0. 0. 0. 7.27340448e-05
      9.89995460e-05 1.07608204e-04 1.62195156e-05 1.35525272e-20
      -6.08976916e-05 -2.49164932e-05 0. 0. 0. -6.74647090e-05
      -5.47398085e-05 1.79942399e-05 3.99224045e-05 3.78719560e-05
      1.35525272e-20 1.35525272e-20 -3.86098618e-05 3.67342291e-05
      6.31988369e-05 4.87495454e-05 -3.00262836e-05 -1.49323110e-04
      -1.49323110e-04 -7.65890654e-05 -5.03235678e-05 1.35525272e-20
      1.35525272e-20 1.35525272e-20 -3.86098618e-05 9.09684895e-05
      1.49323110e-04 1.47074243e-04 4.08512351e-05 -7.20563185e-05
      -9.45997599e-05 -7.65890654e-05 -5.03235678e-05 1.35525272e-20
      1.35525272e-20 1.35525272e-20 1.17137042e-05 9.09684895e-05
      1.49323110e-04 1.49323110e-04 7.45958241e-05 0. 0. 4.67127211e-05
      4.25479047e-05 1.35525272e-20 1.35525272e-20 1.35525272e-20
      1.17137042e-05 9.09684895e-05 1.49323110e-04 1.49323110e-04
      7.45958241e-05 3.91068988e-06 0. 6.71443777e-05 9.89995460e-05
      1.02172358e-04 1.35525272e-20 1.35525272e-20 1.17137042e-05
      8.46445691e-05 1.49323110e-04 1.49323110e-04 7.45958241e-05
      3.91068988e-06 0. 7.27340448e-05 9.89995460e-05 1.49323110e-04
      8.07154138e-05 1.35525272e-20 1.35525272e-20 2.04316548e-05
      9.22035833e-05 1.02299011e-04 -7.60562261e-06 -1.29192907e-04
      -1.14806266e-04 -3.30903254e-06 9.89995460e-05 1.49323110e-04
      1.31025779e-04 3.96370888e-05 1.35525272e-20 1.35525272e-20
      1.35525272e-20 1.35525272e-20 -7.47272861e-05 -1.45412414e-04
      -1.49323110e-04 -5.61574088e-05 3.98934317e-05 1.49323110e-04
      1.49323110e-04 7.45741418e-05 1.35525272e-20 1.35525272e-20
      1.35525272e-20 1.35525272e-20 -7.47272861e-05 -1.45412414e-04
      -1.49323110e-04 -7.65890654e-05 7.60190187e-06 1.49323110e-04
      1.49323110e-04 1.40605160e-04 1.35525272e-20 1.35525272e-20
      1.35525272e-20 1.35525272e-20 -7.47272861e-05 -1.49323110e-04
      -1.49323110e-04 -7.65890654e-05 -8.91379750e-06 1.49323110e-04
      1.49323110e-04 1.44985781e-04 1.35525272e-20 3.00871343e-05
      1.35525272e-20 -2.80774439e-05 -1.08279135e-04 -1.49323110e-04
      -1.49323110e-04 -1.23964375e-04 4.41809570e-05 1.43533500e-04
      1.34873815e-04 7.34455898e-05 7.60361436e-05 5.42342568e-05
      4.55163063e-05 -1.01973646e-05 -6.05209316e-05 -8.39385029e-05
      -4.22236008e-05 0. 0. 5.03235678e-05 4.82350988e-05 1.16926121e-05
      -3.61481602e-06 0. 0. 0. 0. 0. 0. 0. 0. 0. -1.04113591e-04
      -1.30854736e-04 -3.38824102e-05 -5.26255062e-05 0. 0. 0. 0. 0. 0.
      0. -6.25553730e-05 -1.05341373e-04 -7.67220263e-05 -5.03235678e-05
      -9.68268796e-06 -7.53069980e-05 1.34951842e-05 2.58285818e-05
      5.35908075e-05 1.13792885e-05 -1.41884593e-05 -3.58409015e-05
      -8.09376434e-05 -6.00238745e-05 -5.03235678e-05</_>
    <_>
      -2.54109884e-21 -2.54109884e-21 -2.54109884e-21 -2.39944275e-05
      -4.02096266e-05 -2.54512597e-05 -2.27669875e-06 3.97632284e-05
      6.48210989e-05 7.03940023e-05 4.08978558e-05 2.41520083e-05
      -2.54109884e-21 -1.69020223e-05 -6.09653798e-05 -4.87058023e-05
      -2.26692482e-05 -4.07122934e-05 0. 6.51258961e-05 8.33914382e-05
      1.08609791e-04 7.51378975e-05 2.56920630e-05 -1.06993893e-05
      -9.30538736e-05 -9.15905475e-05 -4.70756204e-05 0. 0. 0.
      4.95699787e-05 8.33914382e-05 1.08609791e-04 9.34039999e-05
      4.25009785e-05 -7.31177861e-05 -7.60346302e-05 -7.33833513e-05 0.
      0. 0. 0. 1.73449389e-05 4.81649913e-05 6.75698830e-05
      6.28259877e-05 1.68089155e-05 -2.52183581e-05 -1.57652612e-05
      1.94779641e-05 2.31220656e-05 0. -1.94792046e-05 -8.35519240e-05
      -3.87258406e-05 -2.52183581e-05 -2.54109884e-21 -2.54109884e-21
      -2.54109884e-21 -2.52183581e-05 6.16135512e-05 1.08609791e-04
      6.46521148e-05 1.42861227e-05 -5.44014110e-05 -1.07069740e-04
      -5.90398122e-05 -2.52183581e-05 -2.54109884e-21 -2.54109884e-21
      -2.54109884e-21 1.70192470e-05 1.08609791e-04 1.08609791e-04
      1.08609791e-04 1.91339459e-05 -2.26468546e-05 -2.26468546e-05
      -1.20405612e-05 7.00668124e-06 -2.54109884e-21 -2.54109884e-21
      -2.54109884e-21 3.22250417e-05 1.08609791e-04 1.08609791e-04
      1.08609791e-04 2.38778412e-05 -1.35380415e-05 0. 4.95699787e-05
      6.30774593e-05 3.52653442e-05 1.70192470e-05 -2.54109884e-21
      3.85944804e-05 1.08609791e-04 1.08609791e-04 1.08609791e-04
      1.76752092e-05 1.36351480e-06 0. 4.95699787e-05 8.33914382e-05
      1.08609791e-04 3.76763601e-05 1.70192470e-05 7.38038943e-05
      1.08609791e-04 1.08609791e-04 1.08609791e-04 1.76752092e-05
      1.36351480e-06 -4.54145720e-06 4.80299241e-05 8.33914382e-05
      1.08609791e-04 8.94348268e-05 2.56920630e-05 6.62780658e-05
      1.08609791e-04 1.08609791e-04 1.08609791e-04 1.76752092e-05
      -1.00113517e-04 -1.08609791e-04 -3.87258406e-05 6.30041468e-05
      1.08609791e-04 1.08609791e-04 4.25009785e-05 6.86983331e-05
      1.08609791e-04 1.08609791e-04 1.08609791e-04 -6.10782008e-05
      -1.07246276e-04 -1.08609791e-04 -5.90398122e-05 1.30779499e-05
      1.08609791e-04 1.08609791e-04 5.02462790e-05 3.19208011e-05
      1.08609791e-04 1.08609791e-04 1.08609791e-04 -5.92502183e-05
      -1.08609791e-04 -1.08609791e-04 -5.90398122e-05 2.28713252e-05
      1.08609791e-04 1.08609791e-04 1.05608393e-04 -2.54109884e-21
      1.06781808e-04 1.08609791e-04 9.79104007e-05 -5.14352978e-05
      -1.06781808e-04 -1.08609791e-04 -6.49874346e-05 3.26139852e-05
      1.00171281e-04 1.08609791e-04 6.10713178e-05 -8.43851012e-06
      4.77138292e-06 2.65818726e-05 2.52183581e-05 0. -2.45873853e-05
      -4.67010796e-05 -4.24276695e-05 0. 2.52183581e-05 2.81645735e-05
      8.21505455e-06 -1.02407161e-04 -7.66096127e-05 0. 0. 0. 0. 0. 0.
      0. 0. -5.77804858e-05 -6.94768532e-05 -7.03042388e-05
      -1.08609791e-04 -5.45752955e-05 -2.01103903e-05 0. 0. 0. 0. 0.
      -2.15717391e-05 -6.94768532e-05 -4.12230183e-05 -2.52183581e-05
      -2.52183581e-05 -7.50236431e-05 -5.81434506e-06 -1.95422781e-05
      4.78370282e-07 1.98482376e-05 5.06907963e-06 1.00766947e-05
      -5.65290502e-05 -3.72812610e-05 -2.52183581e-05</_>
    <_>
      3.67891062e-06 3.96245632e-05 1.09299282e-04 8.68903226e-05
      -1.88585400e-05 -2.94487018e-05 -4.64259392e-05 -2.58886030e-06
      4.21975965e-05 1.38096539e-05 1.38096539e-05 -8.47032947e-21
      1.28128057e-04 1.03852595e-04 3.51611516e-06 0. 0. 0. 0.
      2.02262181e-05 9.21396495e-05 1.43684694e-04 1.43684694e-04
      3.54862350e-05 8.82959503e-05 0. 0. 0. 0. 0. 0. 3.51611516e-06
      9.21396495e-05 1.43684694e-04 1.43684694e-04 7.14318885e-05
      8.20089044e-05 0. 0. 0. -1.01307432e-05 -1.38096539e-05
      -3.67891062e-06 1.97857953e-05 9.21396495e-05 1.43684694e-04
      1.43684694e-04 1.01609563e-04 -1.55993912e-05 6.74726980e-05
      6.45108812e-05 -3.95045172e-05 -1.27415013e-04 -1.28128057e-04
      -1.28128057e-04 -6.25977555e-05 9.21396495e-05 1.43684694e-04
      1.43684694e-04 1.55566395e-05 -5.15450411e-05 -8.47032947e-21
      -8.47032947e-21 -8.47032947e-21 -6.82551472e-05 -1.43684694e-04
      -1.43684694e-04 -7.81543931e-05 9.21396495e-05 1.43684694e-04
      6.13011434e-05 -8.47032947e-21 -8.47032947e-21 -8.47032947e-21
      -8.47032947e-21 -8.47032947e-21 -5.15450411e-05 -1.05750551e-04
      -1.43684694e-04 -1.20405257e-05 9.21396495e-05 1.43684694e-04
      1.92355510e-05 -8.47032947e-21 -8.47032947e-21 -8.47032947e-21
      -8.47032947e-21 -8.47032947e-21 -5.15450411e-05 -9.48932575e-05
      -1.33885842e-04 1.97857953e-05 9.21396495e-05 1.43684694e-04
      1.55566395e-05 -8.47032947e-21 -8.47032947e-21 -8.47032947e-21
      -8.47032947e-21 -8.47032947e-21 -5.15450411e-05 -9.48932575e-05
      -8.78094434e-05 1.97857953e-05 9.21396495e-05 1.43684694e-04
      1.55566395e-05 -8.47032947e-21 -8.47032947e-21 -8.47032947e-21
      -8.47032947e-21 -8.47032947e-21 -5.15450411e-05 -9.48932575e-05 0.
      1.97857953e-05 9.21396495e-05 4.99420530e-05 -8.47032947e-21
      -8.47032947e-21 -8.47032947e-21 -8.47032947e-21 -8.47032947e-21
      -8.47032947e-21 -5.15450411e-05 -1.32827394e-04 0. 1.97857953e-05
      9.21396495e-05 1.55566395e-05 -8.47032947e-21 -8.47032947e-21
      -8.47032947e-21 -8.47032947e-21 -8.47032947e-21 -8.47032947e-21
      -5.15450411e-05 -1.32827394e-04 0. 1.97857953e-05 8.44594688e-05
      -8.47032947e-21 -8.47032947e-21 -8.47032947e-21 -8.47032947e-21
      -8.47032947e-21 -8.47032947e-21 -8.47032947e-21 -5.15450411e-05
      -5.36209627e-05 0. 1.97857953e-05 5.00740571e-05 -8.47032947e-21
      -8.47032947e-21 -8.47032947e-21 -8.47032947e-21 -8.47032947e-21
      -8.47032947e-21 -8.47032947e-21 -1.06189284e-04 -1.55566395e-05 0.
      0. 4.63951474e-05 -8.47032947e-21 -8.47032947e-21 -8.47032947e-21
      -8.47032947e-21 -1.67101025e-05 -5.81603599e-05 -6.90176530e-05
      -5.51622070e-05 0. 0. -3.67891062e-06 -4.83098920e-05
      -6.90176530e-05 -6.55015392e-05 -3.79341436e-05 -1.20562698e-04
      -1.43684694e-04 -1.43684694e-04 -1.43684694e-04 -3.30356743e-05 0.
      0. -3.80643214e-05 -1.43684694e-04 -1.43684694e-04 -1.43684694e-04
      -1.36832372e-04 -5.15450411e-05 -1.43684694e-04 -1.43684694e-04
      -1.43684694e-04 -6.13011434e-05 0. 0. -7.14318885e-05
      -1.43684694e-04 -1.43684694e-04 -1.43684694e-04 -1.23458478e-04
      -5.15450411e-05 -7.46670339e-05 -8.90404481e-05 -1.23458478e-04
      -8.55243343e-05 3.89248089e-05 -4.22283883e-05 -8.90404481e-05
      -8.55243343e-05 -8.55243343e-05 -8.55243343e-05 -7.46670339e-05</_>
    <_>
      3.38813179e-21 2.59181870e-05 7.51924472e-06 3.03351080e-05
      -8.90225147e-06 4.31499348e-06 -6.55657573e-07 3.44109758e-05
      3.92178517e-05 3.38813179e-21 3.38813179e-21 3.38813179e-21
      1.28213460e-05 -2.13489093e-05 -4.43376412e-05 0. 0. 0. 0.
      3.87265100e-05 5.58649808e-05 9.88780521e-05 3.38813179e-21
      3.38813179e-21 -5.17381841e-06 -5.94650155e-05 0. 0. 0. 0. 0.
      3.44436194e-05 5.58649808e-05 1.12095302e-04 5.35496001e-05
      3.38813179e-21 -3.27313828e-05 4.28289241e-06 0. 0.
      -3.17002596e-05 -5.11105281e-05 -5.11105281e-05 1.50333499e-05
      5.58649808e-05 1.12095302e-04 1.12095302e-04 4.43376412e-05
      -1.36650024e-05 4.07203697e-05 3.09717980e-05 -5.46020328e-06
      -5.41655936e-05 -9.21503524e-05 -1.12095302e-04 -4.44894868e-05
      5.58649808e-05 1.12095302e-04 1.12095302e-04 4.77675239e-05
      3.01379587e-05 1.12095302e-04 1.12095302e-04 5.85202506e-05
      -3.52951538e-05 -1.12095302e-04 -1.12095302e-04 -4.44894868e-05
      3.14722893e-05 1.12095302e-04 1.12095302e-04 8.03950388e-05
      4.25653161e-05 1.12095302e-04 1.12095302e-04 1.12095302e-04
      -1.81087362e-05 -1.12095302e-04 -8.61771114e-05 -1.27892281e-05
      5.58649808e-05 1.12095302e-04 8.61771114e-05 5.75548875e-05
      5.90803793e-05 9.26850335e-05 1.12095302e-04 1.12095302e-04
      3.02386543e-05 -1.32172454e-05 -2.43926934e-05 3.44436194e-05
      5.58649808e-05 1.12095302e-04 6.09847702e-05 4.43376412e-05
      4.58631330e-05 6.25102621e-05 1.12095302e-04 1.12095302e-04
      2.76556293e-05 0. 0. 3.44436194e-05 5.58649808e-05 1.06313222e-04
      4.77675239e-05 1.99449478e-05 4.58631330e-05 6.25102621e-05
      1.12095302e-04 1.12095302e-04 2.76556293e-05 0. -1.99449478e-05
      1.44986707e-05 5.58649808e-05 1.12095302e-04 7.36857110e-05
      3.38813179e-21 3.91354297e-05 8.77026032e-05 1.12095302e-04
      8.61771114e-05 1.73744297e-06 -5.16452092e-05 -4.58631330e-05
      -1.14195154e-05 5.58649808e-05 1.12095302e-04 1.12095302e-04
      3.38813179e-21 3.91354297e-05 1.12095302e-04 1.12095302e-04
      8.61771114e-05 -3.40891202e-05 -8.42727241e-05 -1.08665416e-04
      -3.66118584e-05 5.58649808e-05 1.12095302e-04 1.12095302e-04
      6.35281249e-05 4.83473887e-05 1.12095302e-04 1.12095302e-04
      7.29598687e-05 -3.75190029e-05 -9.21503524e-05 -9.21503524e-05
      -5.77067331e-05 5.58649808e-05 1.12095302e-04 1.12095302e-04
      7.27400839e-05 4.83473887e-05 1.12095302e-04 1.12095302e-04
      6.20039791e-05 -4.98505979e-05 -9.21503524e-05 -9.21503524e-05
      -6.62321618e-05 3.04365458e-05 1.02346727e-04 1.07288426e-04
      4.68218968e-05 2.20720940e-05 5.62303176e-05 5.62303176e-05
      5.62303176e-05 -9.21195806e-06 -3.36046505e-05 -3.36046505e-05
      -3.01747659e-05 0. 5.62303176e-05 6.44769098e-05 -5.31863361e-06
      -6.45947730e-05 -1.99449478e-05 0. 0. 0. 0. 0. 0. 0. 0.
      -4.53284556e-05 -8.77026032e-05 -4.33656023e-05 -6.37479097e-05
      -3.93552182e-05 0. 0. 0. 0. 0. 0. -3.93552182e-05 -8.42727241e-05
      -7.33687848e-05 -5.62303176e-05 -3.03121324e-05 -5.21040747e-05
      -2.10020535e-05 7.75684293e-06 2.54284350e-05 2.94996721e-06
      4.64983532e-06 -1.42309800e-05 -5.60633707e-05 -6.59788857e-05
      -5.62303176e-05</_>
    <_>
      -3.38813179e-21 -3.38813179e-21 -3.38813179e-21 6.95339113e-05
      1.76980484e-05 1.17280788e-05 -1.88703107e-05 -7.00943974e-06
      -2.92819750e-05 6.50087486e-06 -3.38813179e-21 -3.38813179e-21
      -3.38813179e-21 -2.21134487e-05 -8.71776501e-06 0. 0. 0. 0.
      2.19806552e-05 1.79501585e-05 6.50087486e-06 -3.38813179e-21
      -3.38813179e-21 -2.52246969e-06 -7.75358567e-05 0. 0. 0. 0. 0.
      2.19806552e-05 5.88011244e-05 7.41814292e-05 6.50087486e-06
      -3.38813179e-21 -4.30395012e-05 0. 0. 0. 0. -4.52700915e-05
      -6.50087486e-06 2.19806552e-05 5.88011244e-05 1.33353198e-04
      1.49663665e-05 6.50087486e-06 -2.52356076e-05 4.94627238e-05
      3.66876775e-05 -4.47121738e-06 -1.12907350e-04 -1.33353198e-04
      -8.64735775e-05 -2.32894363e-05 5.88011244e-05 1.33353198e-04
      8.65770053e-05 6.50087486e-06 3.83552797e-05 1.33353198e-04
      1.33353198e-04 1.49663665e-05 -9.41430480e-05 -1.33353198e-04
      -1.33353198e-04 -6.20560750e-05 5.88011244e-05 1.33353198e-04
      1.33353198e-04 6.50087486e-06 1.06406471e-04 1.33353198e-04
      1.33353198e-04 1.49663665e-05 -7.45520665e-05 -1.08393593e-04
      -1.33353198e-04 -6.20560750e-05 5.88011244e-05 1.33353198e-04
      1.33353198e-04 2.69467182e-05 6.76372583e-05 1.33353198e-04
      1.33353198e-04 9.67848318e-05 -6.80511948e-05 -1.08393593e-04
      -1.24887694e-04 2.19806552e-05 5.88011244e-05 1.33353198e-04
      1.33353198e-04 6.77976859e-05 4.08509659e-05 1.33353198e-04
      1.33353198e-04 1.33353198e-04 4.94627238e-05 -1.38070436e-05
      -2.04458447e-05 2.19806552e-05 5.88011244e-05 1.33353198e-04
      1.33353198e-04 6.35150791e-05 -3.38813179e-21 8.80830994e-05
      1.33353198e-04 1.33353198e-04 4.94627238e-05 2.49595978e-05 0.
      2.19806552e-05 5.88011244e-05 1.33353198e-04 1.33353198e-04
      5.54021099e-05 -3.38813179e-21 -3.38813179e-21 8.80830994e-05
      9.45839711e-05 4.94627238e-05 0. 0. 2.19806552e-05 5.88011244e-05
      1.33353198e-04 1.33353198e-04 3.54122094e-05 -3.38813179e-21
      -3.38813179e-21 -3.38813179e-21 1.27480989e-05 1.71111071e-06 0.
      0. 2.19806552e-05 5.88011244e-05 1.33353198e-04 7.62631753e-05
      6.50087486e-06 -3.38813179e-21 -3.38813179e-21 -3.38813179e-21
      -3.38813179e-21 -7.45520665e-05 -1.33353198e-04 -2.04458447e-05
      1.53481164e-06 5.88011244e-05 1.33353198e-04 1.92489733e-05
      6.50087486e-06 -3.38813179e-21 -3.38813179e-21 -3.38813179e-21
      -2.52246969e-06 -8.28558987e-05 -7.19805685e-05 0. 0.
      4.69402548e-05 1.30830726e-04 1.49663665e-05 -3.38813179e-21
      1.76013759e-06 2.90513453e-05 1.06844655e-05 1.06844655e-05
      -3.54122094e-05 0. 0. 0. 0. -1.91063082e-05 -4.70730447e-05
      -3.68204710e-05 -8.31638245e-05 -8.46549119e-06 0. 0. 0. 0. 0. 0.
      -7.96201857e-05 -1.26852319e-04 -1.33353198e-04 -1.33353198e-04
      -4.78976426e-06 -3.87692162e-05 0. 0. 0. 0. -3.87692162e-05
      -9.79409815e-05 -1.33353198e-04 -1.33353198e-04 -1.23100617e-04
      -1.11372538e-04 -6.60865771e-05 1.71111071e-06 -1.94874769e-06
      2.35889493e-05 9.77933087e-06 1.57493014e-05 -8.28175253e-05
      -9.56185468e-05 -7.45520665e-05 -7.70745391e-05 -7.70745391e-05
      -7.45520665e-05</_>
    <_>
      -1.02999206e-18 -1.02999206e-18 7.05904895e-05 9.27951769e-04
      -1.17623662e-04 -1.75423440e-04 0. -1.17623662e-04 -1.49723515e-03
      -1.02999206e-18 -1.02999206e-18 -1.02999206e-18 -1.02999206e-18
      5.21562179e-05 -6.20169623e-04 -5.50527147e-05 0. 0. 0. 0.
      -5.50527147e-05 -6.20169623e-04 7.05904895e-05 -1.02999206e-18
      -1.02999206e-18 2.74707008e-06 0. 0. 0. 0. 0. 0. 0. 0.
      3.72695240e-06 -1.02999206e-18 1.07279469e-04 0. 0. 0. 0.
      -7.05904895e-05 -7.05904895e-05 0. 0. 0. 1.57555507e-04
      -4.84292650e-05 -1.57555507e-04 -8.03744246e-04 -5.21562179e-05
      -7.65455421e-04 -2.15948967e-05 -1.02999206e-18 -1.84342680e-05
      8.88451978e-05 3.62048886e-05 0. 0. 5.56190389e-05 -1.57555507e-04
      -2.15355292e-04 -2.15355292e-04 -2.15948967e-05 -1.02999206e-18
      -1.02999206e-18 -1.84342680e-05 -1.84342680e-05 5.77997853e-05 0.
      0. -1.49714469e-05 -1.02999206e-18 -1.02999206e-18 -1.02999206e-18
      -1.02999206e-18 -1.02999206e-18 1.20370729e-04 1.72526954e-04
      1.60302574e-04 2.15948967e-05 0. 0. -8.30773439e-04
      -1.02999206e-18 -1.02999206e-18 -1.02999206e-18 -1.02999206e-18
      1.20370729e-04 2.33789557e-04 2.15355292e-04 3.62048886e-05 0. 0.
      -1.20370729e-04 7.10745808e-05 -1.02999206e-18 -1.02999206e-18
      -1.02999206e-18 -1.02999206e-18 -3.49750364e-04 2.33789557e-04
      5.77997853e-05 0. 0. 0. -6.57680153e-04 -3.62048886e-05
      -1.02999206e-18 -1.02999206e-18 -1.02999206e-18 -1.02999206e-18
      1.20370729e-04 -8.17995751e-04 0. 0. 0. 0. 1.13418828e-04
      8.40433233e-04 -1.02999206e-18 -1.02999206e-18 -1.02999206e-18
      -1.02999206e-18 -1.84342680e-05 -2.33789557e-04 -2.33789557e-04
      -5.83661094e-05 0. 2.33789557e-04 2.33789557e-04 1.13418828e-04
      -1.02999206e-18 -1.02999206e-18 -1.02999206e-18 -1.97584668e-04
      -2.33789557e-04 -2.33789557e-04 -2.33789557e-04 -2.33789557e-04
      -8.81914631e-04 2.33789557e-04 2.33789557e-04 2.33789557e-04
      -1.02999206e-18 -1.02999206e-18 -4.00291647e-05 -2.33789557e-04
      -2.33789557e-04 -2.33789557e-04 -2.33789557e-04 -3.62048886e-05
      6.58246456e-04 2.33789557e-04 2.33789557e-04 2.33789557e-04
      -1.02999206e-18 -7.45872094e-04 -1.90144882e-03 -1.13418828e-04
      -1.13418828e-04 -2.33789557e-04 -1.02999206e-18 1.20370729e-04
      1.78736838e-04 2.12194660e-04 1.75989771e-04 2.33789557e-04
      4.00291647e-05 0. 0. -7.80472183e-04 -1.04265194e-03
      -7.77816924e-04 -6.04482426e-04 1.75989771e-04 1.84342680e-05
      1.84342680e-05 1.84342680e-05 -1.49714469e-05 8.77583923e-04 0. 0.
      0. 0. 0. 0. 0. 0. 0. -7.78617221e-04 -7.62340496e-05
      -6.87103020e-05 -1.20370729e-04 0. 0. 0. 0. 0. 0. 0.
      -7.78617221e-04 -2.33789557e-04 -5.46391566e-05 -1.75989771e-04
      -6.87103020e-05 1.88018521e-06 -7.95724685e-04 -8.41658402e-05
      5.77997853e-05 2.15948967e-05 -7.20817421e-04 -6.87103020e-05
      -1.75989771e-04 -5.46391566e-05 -1.84342680e-05</_>
    <_>
      1.18584613e-20 1.18584613e-20 1.18584613e-20 -3.44432592e-05
      -8.61231092e-05 -8.61231092e-05 -1.68468541e-05 2.28132212e-05
      4.45255318e-05 6.75707124e-05 2.12888754e-05 1.18584613e-20
      1.18584613e-20 -2.17123106e-05 -5.96677310e-05 -1.18656848e-04
      -1.22582554e-04 -7.02009493e-05 0. 0. 0. -9.08450966e-06
      5.15335960e-05 1.18584613e-20 1.18584613e-20 -8.54871032e-05
      -1.22582554e-04 -1.22582554e-04 -1.22582554e-04 0. 0. 0. 0.
      -1.36462240e-05 -2.35734406e-05 -1.95473567e-05 1.18584613e-20
      -8.88913273e-05 -1.22582554e-04 -1.22582554e-04 -5.47882519e-05
      1.27309495e-05 1.27309495e-05 0. 0. 0. -4.54983201e-05
      -5.75027771e-05 1.18584613e-20 -1.18656848e-04 -1.00870246e-04
      -6.25945104e-05 8.61231092e-05 1.22582554e-04 1.00870246e-04
      7.11047251e-05 1.29659447e-05 0. -5.39749599e-05 -6.41967054e-05
      1.18584613e-20 -6.26798283e-05 -6.66055348e-05 6.17821934e-05
      1.22582554e-04 1.22582554e-04 1.00870246e-04 1.00870246e-04
      1.31528641e-05 0. -5.39749599e-05 -7.04687191e-05 1.18584613e-20
      1.18584613e-20 2.32532857e-05 1.22582554e-04 1.22582554e-04
      1.22582554e-04 7.11000248e-05 6.31017392e-05 6.69392966e-06 0.
      -6.39936115e-05 -6.48327114e-05 1.18584613e-20 6.96821189e-06
      8.33611775e-05 1.22582554e-04 1.22582554e-04 8.26047180e-05
      -9.63648927e-06 5.60068002e-05 0. 0. -6.39936115e-05
      -2.99319981e-05 1.18584613e-20 6.35951365e-05 1.22582554e-04
      1.22582554e-04 9.10860690e-05 2.43886079e-05 -3.92430302e-05
      -1.09684026e-06 0. 0. -1.25157858e-05 1.18584613e-20
      2.53193994e-05 8.33611775e-05 1.22582554e-04 1.22582554e-04
      7.71691630e-05 -6.44266183e-05 -9.02949396e-05 -1.09684026e-06 0.
      0. 3.57246390e-05 1.18584613e-20 6.46919725e-05 1.22582554e-04
      1.22582554e-04 1.16123621e-04 7.68897225e-05 -2.96088047e-06
      3.75740751e-06 3.14964855e-05 6.27201507e-06 7.15387141e-05
      5.52719976e-05 1.64773937e-05 1.04421662e-04 1.22582554e-04
      1.16123621e-04 6.51877053e-05 3.14964855e-05 3.14964855e-05
      3.14964855e-05 3.14964855e-05 7.15387141e-05 9.10860690e-05
      9.10860690e-05 4.55924528e-05 9.20038437e-05 1.16123621e-04
      6.51877053e-05 3.14964855e-05 3.14964855e-05 3.14964855e-05
      3.77684992e-05 1.03035200e-04 1.22582554e-04 9.10860690e-05
      8.46271359e-05 6.02837754e-05 1.11154895e-05 -2.31264403e-05
      -4.72994398e-05 1.63537425e-05 1.63537425e-05 3.14964855e-05
      6.03037370e-05 9.67631786e-05 6.52666931e-05 5.81717541e-05
      4.45255318e-05 1.00679390e-05 -4.69956576e-05 -1.22582554e-04
      -1.12563903e-04 -9.01781896e-05 -6.39392310e-05 -2.73118712e-05
      4.29964784e-05 5.14778258e-05 2.17123106e-05 2.17123106e-05
      6.51267555e-06 1.07430906e-05 -6.13205557e-05 -1.22582554e-04
      -1.22582554e-04 -1.22582554e-04 -9.72631533e-05 -2.95418304e-05
      -8.48134641e-06 0. 0. 0. -8.48134641e-06 2.72052785e-05
      -7.10251843e-05 -1.22582554e-04 -1.22582554e-04 -1.22582554e-04
      -9.66065345e-05 -3.90600544e-05 -8.48134641e-06 0. 0. 0.
      1.60469262e-05 1.57676604e-05 -2.17123106e-05 -5.54035323e-05
      -5.60395383e-05 -8.96682395e-05 -8.69000214e-05 -5.09053498e-05
      9.29022372e-06 2.87745133e-05 3.27515809e-05 2.48680935e-05
      1.88001115e-06 6.76634636e-06</_>
    <_>
      -1.35525272e-20 -1.35525272e-20 1.52381966e-04 1.48922452e-04
      -1.31050710e-05 2.35018997e-05 2.35018997e-05 7.59288696e-06
      7.59288696e-06 9.06104906e-05 -1.35525272e-20 -1.35525272e-20
      -1.35525272e-20 1.30241737e-04 5.79530133e-05 0. 0. 0. 0. 0. 0.
      6.07140080e-08 4.28423955e-05 -1.35525272e-20 -1.35525272e-20
      -4.48538049e-05 0. 0. 0. 0. 0. 0. 0. 0. -1.28275322e-04
      -1.35525272e-20 -1.35525272e-20 -4.62473108e-05 0. 0. 0.
      -2.37877121e-05 -2.37877121e-05 -2.94432448e-05 -2.94432448e-05
      -1.11580739e-04 -1.84985576e-04 -1.77936541e-04 -1.35525272e-20
      -9.71512854e-05 0. 0. 1.21881298e-04 -1.35525272e-20
      -1.35525272e-20 -5.09039746e-05 -2.30234014e-04 -2.35889544e-04
      -2.35889544e-04 -1.77936541e-04 -1.35525272e-20 8.07852484e-05
      1.77936541e-04 1.84985576e-04 1.52419263e-04 6.07411785e-05
      1.99399510e-05 -1.35525272e-20 -2.34496038e-04 -2.35889544e-04
      -2.35889544e-04 -1.83592070e-04 -1.35525272e-20 1.38738265e-04
      1.84985576e-04 2.35889544e-04 2.35889544e-04 2.35889544e-04
      1.99282571e-04 1.56905098e-05 -5.38487766e-05 -2.06446304e-04
      -2.35889544e-04 -1.77936541e-04 -1.35525272e-20 1.04368853e-04
      2.35889544e-04 2.35889544e-04 2.35889544e-04 5.79530133e-05
      5.79530133e-05 5.09039746e-05 0. -1.33279116e-06 -2.06446304e-04
      -1.35525272e-20 -1.35525272e-20 1.04368853e-04 2.35889544e-04
      2.35889544e-04 5.79530133e-05 5.79530133e-05 5.09039746e-05 0. 0.
      0. 4.95711865e-05 -1.35525272e-20 -1.35525272e-20 1.72418040e-05
      9.46500077e-05 8.71878801e-05 6.99460797e-05 -1.70192914e-04
      -2.22490387e-04 -4.93831976e-05 0. 0. 5.66202216e-05
      1.52845329e-04 -1.35525272e-20 -1.35525272e-20 -1.35525272e-20
      -1.35525272e-20 -5.65553137e-06 -5.79530133e-05 -5.79530133e-05
      -5.79530133e-05 -4.37276649e-05 5.79530133e-05 5.79530133e-05
      2.22508170e-05 -1.35525272e-20 -1.35525272e-20 -1.35525272e-20
      -7.04903641e-06 -5.79530133e-05 -5.79530133e-05 -5.79530133e-05
      -5.79530133e-05 -1.26083658e-04 5.79530133e-05 5.79530133e-05
      5.79530133e-05 -1.35525272e-20 -1.35525272e-20 -7.04903641e-06
      -5.79530133e-05 -5.79530133e-05 -5.79530133e-05 -5.22974806e-05
      -1.35525272e-20 3.84537161e-05 5.79530133e-05 5.79530133e-05
      5.79530133e-05 7.51701664e-05 -4.60027550e-05 -1.31276131e-04
      -2.85097685e-05 -5.79530133e-05 -5.79530133e-05 -5.79530133e-05
      5.47224445e-05 1.56905098e-05 5.09039746e-05 5.09039746e-05
      2.22508170e-05 2.15958098e-05 0. 0. -5.13389168e-05
      -1.11336187e-04 -1.59104282e-04 -2.47300122e-05 2.52761110e-05 0.
      0. 0. -1.03696053e-04 9.73198185e-05 0. 0. 0. 0. 0. 0. 0. 0. 0.
      -1.60255557e-04 1.20056475e-05 -2.53368253e-05 -7.67852689e-05 0.
      0. 0. 0. 0. 0. -2.74020749e-05 -1.60255557e-04 -4.45538608e-05
      -5.09039746e-05 -1.35525272e-20 -3.88983281e-05 2.33365081e-05
      -5.11897888e-05 -2.17465440e-05 5.65553137e-06 5.65553137e-06
      -2.74020749e-05 1.77196296e-06 -3.88983281e-05 -5.09039746e-05
      -1.35525272e-20</_>
    <_>
      -3.72694497e-20 -3.72694497e-20 -3.72694497e-20 -2.01197381e-05
      -1.07799380e-04 -5.83530091e-05 -1.58775274e-05 1.64249764e-06
      2.87882922e-05 9.87555031e-05 2.45371411e-05 1.68392944e-05
      -3.72694497e-20 -3.72694497e-20 -1.07764499e-04 -1.06568041e-04
      -5.32029080e-05 -2.47057087e-05 0. 0. 0. 8.45082923e-06
      1.06222848e-04 2.31505874e-05 -3.72694497e-20 -1.09185930e-04
      -9.47333974e-05 -6.26973997e-05 0. 0. 0. 0. 0. 0. 4.20581091e-05
      4.75498455e-05 -3.72694497e-20 -1.04415558e-04 -7.16323193e-05 0.
      0. -2.45562569e-05 -2.45562569e-05 -5.92837532e-05 -5.92837532e-05
      -6.36204422e-05 -1.09226812e-05 -9.22004183e-05 -3.72694497e-20
      -8.26604664e-05 0. 0. 1.09185930e-04 1.02231352e-04 2.71457939e-05
      -3.40136903e-05 -1.51209169e-04 -1.52630600e-04 -1.52630600e-04
      -1.16215335e-04 -3.72694497e-20 3.73884213e-05 8.90661904e-05
      1.09185930e-04 1.07954598e-04 6.71219022e-05 -3.72694497e-20
      -3.72694497e-20 -1.25481456e-04 -1.52630600e-04 -1.52630600e-04
      -1.17636759e-04 6.99701268e-05 1.52630600e-04 1.17636759e-04
      1.52630600e-04 8.17889450e-05 5.27829907e-05 5.27829907e-05
      -5.00207098e-05 -1.29572014e-04 -1.52630600e-04 -1.52630600e-04
      -1.16215335e-04 7.13566842e-05 1.52630600e-04 1.52630600e-04
      1.52630600e-04 1.52630600e-04 6.25842586e-05 6.35644028e-05
      3.49938309e-05 -9.80141863e-07 -4.62388634e-05 -1.39409385e-04
      -1.86983088e-05 8.67371709e-05 1.52630600e-04 1.52630600e-04
      1.52630600e-04 6.35644028e-05 6.35644028e-05 4.34446629e-05 0. 0.
      0. -5.74015166e-06 1.32212035e-05 1.13832539e-04 1.52630600e-04
      1.52630600e-04 1.52630600e-04 1.52630600e-04 3.05653193e-05
      -6.63905157e-05 0. 0. 0. 5.82475695e-05 6.15152894e-05
      1.07263673e-04 1.52630600e-04 1.52630600e-04 1.33932292e-04
      7.57619273e-05 -5.36350162e-05 -6.35644028e-05 -4.42000382e-05
      -2.08689708e-05 6.35644028e-05 6.35644028e-05 3.15965008e-06
      8.77996063e-05 1.52630600e-04 1.33932292e-04 1.24060025e-04
      -4.71401327e-05 -6.35644028e-05 -6.35644028e-05 -5.14914718e-05
      -8.88935756e-06 6.35644028e-05 6.35644028e-05 4.22046433e-05
      7.09502710e-05 1.33932292e-04 1.24060025e-04 8.90661904e-05
      -3.80709353e-05 -6.35644028e-05 -6.21429717e-05 1.20729292e-05
      6.64169202e-05 6.35644028e-05 4.48660903e-05 6.27579866e-05
      5.67489260e-05 2.59246353e-05 0. 8.90661904e-05 -9.43628402e-06
      -5.44952054e-05 -3.64152620e-05 1.06514999e-05 1.00688285e-05
      3.49938309e-05 3.49938309e-05 -8.82289669e-07 -9.71130066e-05
      -5.95328092e-05 0. 0. 0. -6.83770486e-05 -4.34961948e-05
      -2.70865767e-05 0. 0. 0. -4.18938616e-05 -2.85705682e-05
      -7.61655756e-05 0. 0. 0. 0. 0. 0. 0. 0. -5.21434704e-05
      2.49633422e-06 -3.49938309e-05 -1.52630600e-04 -6.52560557e-05
      -1.46563698e-05 0. 0. 0. 0. 0. -1.54627833e-05 1.07570686e-05
      -3.49938309e-05 -3.72694497e-20 -3.49938309e-05 -3.49938309e-05
      -3.00907195e-05 -8.56424685e-06 1.39141985e-05 2.77641557e-05
      1.16863566e-05 6.09121162e-05 -1.85695626e-05 -3.49938309e-05
      -3.72694497e-20</_>
    <_>
      3.54806321e-06 3.72543727e-05 1.17634831e-04 8.04563388e-05
      -2.86917530e-05 -3.62991559e-05 -8.03583680e-06 -2.49065306e-05
      -2.63206603e-05 4.71493950e-05 3.84642772e-05 3.54806321e-06
      9.22690451e-05 1.62608689e-04 9.91818379e-05 0. 0. 0. 0. 0. 0.
      1.79528415e-05 1.91538958e-04 7.16341965e-05 1.71189182e-04
      5.51715493e-05 0. 0. 0. 0. 0. 0. 0. 0. 2.72517245e-05
      9.47631634e-05 1.48549312e-04 2.72517245e-05 -3.54806321e-06
      -4.15975319e-06 -4.15975319e-06 1.01229698e-05 1.01229698e-05
      4.12062747e-07 3.96012592e-06 0. 2.72517245e-05 5.28486635e-05
      5.18080560e-05 -3.54806321e-06 1.60853979e-05 -1.06328414e-04
      -3.15704674e-05 2.43098966e-05 -8.58049680e-06 -2.42428687e-05
      2.24978271e-06 0. 0. -1.97416812e-05 -2.71050543e-20
      -4.83844597e-05 -9.48630914e-05 -2.72517245e-05 -2.71050543e-20
      -2.71050543e-20 -3.28903952e-05 -2.13010389e-05 2.62317099e-05 0.
      -6.76599157e-05 -5.49858669e-05 -2.71050543e-20 -2.71050543e-20
      -2.72517245e-05 -2.71050543e-20 -2.71050543e-20 -2.71050543e-20
      -3.28903952e-05 4.57979695e-06 4.31874105e-06 0. -7.92492719e-05
      -8.90417214e-05 -2.71050543e-20 -2.71050543e-20 -2.71050543e-20
      -2.71050543e-20 -2.71050543e-20 -6.34268508e-05 -9.63172424e-05
      7.43509736e-05 0. 0. -7.92492719e-05 -5.56006562e-05
      -2.71050543e-20 -2.71050543e-20 -2.71050543e-20 -2.71050543e-20
      -6.34268508e-05 -6.34268508e-05 -1.00698730e-04 0. 0. 0.
      -7.44427307e-05 -1.79528415e-05 -2.71050543e-20 -2.71050543e-20
      -2.71050543e-20 -2.71050543e-20 -2.71050543e-20 -1.39715834e-04
      -4.69497681e-05 0. 0. -6.76599157e-05 -9.65028521e-05
      -2.71050543e-20 -2.71050543e-20 -2.71050543e-20 -2.71050543e-20
      -2.71050543e-20 -4.75317320e-05 -1.32072222e-04 2.91223259e-05
      6.34268508e-05 1.03225966e-05 7.10171753e-06 -6.34268508e-05
      -6.34268508e-05 -2.71050543e-20 -2.71050543e-20 -2.71050543e-20
      -8.45678587e-05 -1.32072222e-04 -1.32072222e-04 6.34268508e-05
      6.34268508e-05 9.89962282e-05 6.39610607e-06 -6.34268508e-05
      -6.34268508e-05 -2.71050543e-20 -2.71050543e-20 -8.68676580e-05
      -1.32072222e-04 -1.32072222e-04 -3.87472937e-05 7.37494483e-05
      1.44470236e-04 1.83909724e-04 -6.34268508e-05 -6.34268508e-05
      -6.34268508e-05 -2.71050543e-20 -1.68247352e-04 -1.95499073e-04
      -1.32072222e-04 -1.32072222e-04 -2.71579411e-05 1.14881776e-04
      1.48140360e-04 3.45657718e-05 -1.12473688e-04 -1.30426532e-04
      -1.00462974e-04 -1.02280959e-04 -1.95499073e-04 -1.95499073e-04
      -1.95499073e-04 -1.27839172e-04 -3.43045249e-05 6.01421198e-05
      6.01421198e-05 -8.16918400e-05 -1.62608689e-04 -1.62608689e-04
      -1.25034363e-04 -9.91722627e-05 -1.95499073e-04 -1.95499073e-04
      -1.95499073e-04 -1.03230035e-04 -3.43045249e-05 0. -1.15893545e-05
      -1.95499073e-04 -1.95499073e-04 -1.95499073e-04 -9.44979038e-05
      -9.38298108e-05 -1.95499073e-04 -1.95499073e-04 -1.95499073e-04
      -1.15431081e-04 -3.43045249e-05 0. -6.78696233e-05 -1.95499073e-04
      -1.95499073e-04 -1.32072222e-04 -1.20061515e-04 -3.28903952e-05
      -6.01421198e-05 -6.18302365e-05 -1.29575827e-04 -1.25669147e-04
      7.66744779e-06 3.79899666e-06 -1.33279871e-04 -7.21528340e-05
      -6.57903583e-05 -7.80949631e-05 -3.28903952e-05</_>
    <_>
      1.35525272e-20 2.26533357e-05 2.26533357e-05 6.13512821e-05
      -8.38833967e-06 -1.73228909e-05 -2.74154027e-05 5.14749900e-06
      -5.50715122e-05 4.79538794e-05 1.35525272e-20 1.35525272e-20
      2.26533357e-05 3.86801948e-05 -2.23647621e-05 0. 0. 0. 0. 0. 0.
      2.54093611e-05 -2.70652417e-05 1.35525272e-20 3.86801948e-05
      -7.33240231e-05 0. 0. 0. 0. 0. 0. 0. 0. -2.80300101e-05
      4.79538794e-05 5.54693033e-05 4.32530624e-06 0. 0. -5.73762518e-05
      -2.98936066e-05 -2.98936066e-05 -6.24880777e-05 0. 0.
      4.32530624e-06 -7.93644213e-05 8.84849287e-05 0. 0.
      -4.87995785e-05 1.43860118e-04 6.38669280e-06 1.35525272e-20
      2.37095846e-05 -4.90438870e-05 0. 0. -6.16776670e-05
      9.70149340e-05 1.69973340e-04 1.69973340e-04 2.11927138e-04
      1.20154924e-04 1.35525272e-20 1.35525272e-20 6.38669280e-06
      -4.06214458e-05 0. 0. -4.71434651e-05 1.06249463e-04
      2.64269387e-04 2.59944063e-04 2.63559370e-04 1.44834485e-04
      1.35525272e-20 2.26533357e-05 -7.42833872e-05 -7.79805941e-06 0.
      -2.26533357e-05 -3.66066815e-05 1.06253858e-04 2.47748860e-04
      3.11326934e-04 3.11326934e-04 2.89678748e-04 8.15823805e-05
      3.97106778e-05 2.97346669e-05 0. 0. -5.58835891e-05 3.80735873e-05
      7.68075988e-05 1.06253858e-04 3.11326934e-04 3.11326934e-04
      1.41353579e-04 1.41353579e-04 4.32530624e-06 0. 0. -1.86960533e-05
      -1.10899789e-04 6.38669280e-06 4.50668886e-05 1.06253858e-04
      3.11326934e-04 3.11326934e-04 3.11326934e-04 4.32530624e-06
      -6.38669280e-06 -6.38669280e-06 0. 0. 3.94175768e-05
      1.35525272e-20 7.82189672e-05 2.28894351e-04 3.11326934e-04
      2.13654479e-04 1.74877961e-04 9.84123471e-05 6.91545210e-05
      1.40933320e-04 0. 9.42960251e-05 1.41353579e-04 -7.65463483e-05
      1.09986548e-04 3.11326934e-04 2.36307809e-04 1.35618451e-04
      2.67565483e-05 -9.67308588e-05 -1.07397362e-04 -7.02583384e-06
      9.42960251e-05 1.41353579e-04 1.41353579e-04 5.75444901e-05
      1.63845369e-04 2.21356211e-04 1.74298650e-04 8.94330587e-05
      -4.23902857e-05 -1.34966889e-04 -1.34966889e-04 -4.06708641e-05
      2.23807408e-04 1.41353579e-04 6.63344617e-05 1.20432691e-04
      1.37567840e-04 4.32530624e-06 0. 1.19536584e-04 -2.01086532e-05
      -1.34966889e-04 -4.49961735e-05 2.90400276e-05 1.41353579e-04
      5.13828636e-05 4.32530624e-06 1.26408549e-05 -1.54482186e-04 0. 0.
      0. -4.03442500e-05 -8.49669814e-05 -1.01640944e-04 -6.50116708e-05
      0. 0. 0. -6.91396199e-05 -2.62631220e-05 -1.03359816e-04 0. 0. 0.
      0. 0. 0. 0. 0. -4.73069194e-05 -2.91857723e-05 -4.36811315e-05
      -2.48329336e-04 -1.16804003e-04 0. 0. 0. 0. 0. 0. -4.70671366e-05
      -3.61827988e-05 -5.13828636e-05 -1.49516009e-05 -4.36811315e-05
      -3.33687831e-06 -7.48189486e-05 2.62195408e-05 7.50191175e-05
      5.23657873e-05 2.62195408e-05 3.36811208e-05 -6.35382733e-08
      -5.13828636e-05 1.35525272e-20</_>
    <_>
      -3.38813179e-20 -3.38813179e-20 1.49854623e-05 8.83695466e-05
      9.34300169e-06 3.94917224e-05 6.14073360e-05 -2.39522597e-05
      -5.82960747e-05 2.97240185e-05 -3.38813179e-20 -3.38813179e-20
      -3.38813179e-20 1.49854623e-05 5.15887987e-05 0. 0. 0. 0. 0.
      -4.91221545e-06 -5.87342511e-05 -1.40144743e-06 -3.38813179e-20
      1.49854623e-05 -1.00013734e-04 0. 0. 0. 0. 0. 0. 0.
      -4.91221545e-06 -2.84275720e-05 -4.00764911e-05 6.49787253e-05
      3.94917224e-05 0. 0. -3.74355795e-06 -7.71276391e-05
      -1.29226628e-05 0. 0. 0. -5.52554047e-05 -3.78095356e-05
      3.74727824e-05 0. 0. -6.79485311e-05 3.99004748e-05
      -3.38813179e-20 2.18863770e-05 4.53414123e-06 1.91434665e-05 0. 0.
      -6.39657155e-05 1.26638406e-04 1.06589127e-04 1.06589127e-04
      6.56370394e-05 -3.38813179e-20 -3.38813179e-20 -3.38813179e-20
      4.91221545e-06 -5.06628894e-05 0. 0. -5.15118445e-05
      1.86689518e-04 2.07380363e-04 1.67888647e-04 1.05806874e-04
      -3.38813179e-20 -3.38813179e-20 -3.38813179e-20 -1.17076823e-04
      -5.75058220e-05 0. 0. -1.04820028e-05 6.49787253e-05
      2.39649686e-04 2.39649686e-04 2.11795908e-04 8.85796035e-05
      -1.06589127e-04 -1.02845566e-04 -9.65298909e-07 0. 0. 0.
      1.01019337e-04 4.77514550e-05 2.39649686e-04 2.39649686e-04
      2.39649686e-04 1.05206782e-04 8.58731073e-06 1.58961739e-05 0. 0.
      0. 3.94917224e-05 1.65091013e-04 -3.38813179e-20 7.56231966e-05
      2.39649686e-04 2.39649686e-04 2.39649686e-04 7.17610383e-05 0. 0.
      0. 0. 6.00366366e-05 1.70532498e-04 -3.38813179e-20
      -3.38813179e-20 6.96378338e-05 1.74043264e-04 1.91598825e-04
      1.06589127e-04 1.06589127e-04 1.06589127e-04 1.91434665e-05
      6.00366366e-05 1.33060559e-04 6.01998072e-05 -3.38813179e-20
      -3.38813179e-20 -1.40144743e-06 -6.18287886e-05 -5.93106743e-05
      4.89430158e-06 3.64916377e-05 1.06589127e-04 6.07147485e-05
      1.33060559e-04 6.51120208e-05 3.69636655e-05 -3.38813179e-20
      -1.40144743e-06 -9.35688367e-05 -1.33060559e-04 -1.33060559e-04
      -1.05206782e-04 1.65214551e-05 1.45417493e-04 2.39649686e-04
      1.33060559e-04 4.18241980e-05 -2.13201565e-06 -6.78112769e-07
      -1.96414403e-04 -2.35906133e-04 -1.33060559e-04 -5.38701170e-05
      -2.11041261e-05 7.73125867e-05 1.80429721e-04 7.38406015e-05
      7.17610383e-05 -6.64973122e-05 -9.12393589e-05 -1.22956524e-04
      -5.16103973e-05 -5.16103973e-05 -5.16103973e-05 -5.16103973e-05 0.
      4.49332074e-05 4.49332074e-05 1.69792713e-06 -6.79485311e-05
      -2.39649686e-04 -1.81014489e-04 -2.72403431e-05 0. 0. 0. 0. 0. 0.
      -3.74355795e-06 -7.42105112e-05 -2.09925667e-04 -2.39649686e-04
      -7.44253703e-05 -2.56505409e-05 -6.42049781e-05 0. 0. 0. 0.
      -6.79485311e-05 -7.42105112e-05 -2.39649686e-04 -2.39649686e-04
      -1.33060559e-04 -1.12515641e-04 -2.68278309e-05 4.04064122e-05
      9.04138869e-05 4.93795014e-05 -1.85690333e-05 -5.26847907e-05
      -1.09512497e-04 -1.97493631e-04 -9.23059561e-05 -7.17610383e-05
      -7.17610383e-05 -5.44148497e-06</_>
    <_>
      8.47032947e-21 8.47032947e-21 -5.02210878e-06 -7.33259512e-05
      -7.33259512e-05 -9.74484210e-05 -3.43146312e-05 3.66000713e-05
      8.54427344e-05 6.65111147e-05 8.47032947e-21 8.47032947e-21
      8.47032947e-21 -6.83038452e-05 -1.02288592e-04 -1.24135637e-04
      -1.24135637e-04 -9.26601497e-05 0. 0. 5.67887582e-07
      1.74672859e-05 4.75175439e-05 8.47032947e-21 8.47032947e-21
      -1.15245384e-04 -1.24135637e-04 -1.24135637e-04 -1.24135637e-04 0.
      0. 0. 0. 1.48785443e-06 -1.16894607e-05 8.47032947e-21
      -9.36460401e-06 -1.23102494e-04 -1.24135637e-04 -1.09493529e-04
      -1.06698581e-05 7.33259512e-05 3.13840428e-05 0. 0. 0.
      -4.33987880e-05 -6.90075376e-06 8.47032947e-21 -4.97765468e-05
      -6.25295070e-05 -3.17509111e-05 1.16278527e-04 1.24135637e-04
      1.07481814e-04 5.32521954e-05 0. 0. -6.64659019e-05
      -6.90075376e-06 8.47032947e-21 -5.67887582e-07 8.47032947e-21
      7.05861021e-05 1.24135637e-04 1.24135637e-04 1.24135637e-04
      6.99060256e-05 0. 0. -7.52626220e-05 -6.90075376e-06
      8.47032947e-21 8.47032947e-21 2.12018258e-05 1.24135637e-04
      1.24135637e-04 9.99807453e-05 1.30056687e-05 1.47578667e-05 0. 0.
      -4.68016769e-05 -6.90075376e-06 8.47032947e-21 1.25374872e-05
      7.52546766e-05 1.09493529e-04 5.82072680e-05 -1.37273503e-06
      -5.90504133e-05 0. 0. 0. 4.14043789e-05 -6.90075376e-06
      8.47032947e-21 5.62611094e-05 8.21937283e-05 6.55398981e-05
      7.93389518e-06 -3.87843538e-05 -6.91744426e-05 -1.35547634e-06 0.
      4.97990222e-05 3.02524495e-05 8.47032947e-21 1.59406754e-05
      7.52546766e-05 8.21937283e-05 7.33970155e-05 2.03799318e-05
      -4.65339654e-05 -5.61547131e-05 -1.35547634e-06 0. 0.
      6.64552726e-06 -1.86205707e-05 5.76165839e-05 1.24135637e-04
      1.24135637e-04 1.24135637e-04 1.06497544e-04 6.73638933e-05
      2.38636312e-05 1.17198178e-05 0. 0. -4.48163446e-05 2.33069768e-05
      9.36893630e-05 1.24135637e-04 1.24135637e-04 1.24135637e-04
      1.24135637e-04 1.24135637e-04 1.24135637e-04 7.33970155e-05
      3.25548317e-05 0. 0. -4.12733789e-05 7.79180045e-05 1.24135637e-04
      1.24135637e-04 1.24135637e-04 1.24135637e-04 1.24135637e-04
      1.24135637e-04 8.21937283e-05 3.75769378e-05 0. 0. -5.20423418e-06
      -3.66663244e-06 -1.29951286e-06 2.64834325e-05 5.76788880e-05
      7.59199975e-05 1.24135637e-04 1.19113531e-04 3.97977274e-05
      6.90075376e-06 0. -7.30886222e-06 -3.87054242e-05 -1.16666997e-04
      -1.24135637e-04 -6.59283687e-05 -6.45728942e-05 -4.34266331e-05
      -1.76600461e-05 3.17724589e-05 6.90075376e-06 0. 0.
      -5.30577154e-06 1.19999568e-05 -8.55255566e-05 -1.24135637e-04
      -1.24135637e-04 -1.24135637e-04 -1.08194967e-04 -3.60727790e-05
      -1.76380927e-05 0. 0. 1.46421144e-05 5.70869961e-05 4.92811305e-05
      -5.82072680e-05 -6.60643782e-05 -9.77737072e-05 -1.24135637e-04
      -8.50019860e-05 -6.38557249e-05 -1.76380927e-05 0. 2.63619331e-05
      6.68679786e-05 8.70593067e-05 8.66511982e-05 -8.79671643e-06
      -5.82072680e-05 -5.82072680e-05 -6.60643782e-05 -8.67617491e-05
      -5.86400565e-05 -1.53369092e-05 6.59283687e-05 2.02786250e-05
      5.11709040e-05 3.91336544e-05 1.35547634e-06</_>
    <_>
      -7.45388994e-20 -7.45388994e-20 1.57464499e-04 5.98906736e-05
      2.64298487e-05 1.14505792e-05 -1.31267370e-05 4.18547388e-05
      1.27723193e-04 1.51349683e-04 -7.45388994e-20 -7.45388994e-20
      -7.45388994e-20 3.20246436e-05 5.03342526e-05 0. 0. 0. 0. 0. 0.
      4.05385690e-05 3.26190166e-05 -7.45388994e-20 -1.95334815e-05
      -9.03404798e-05 0. 0. 0. 0. 0. 0. 0. 1.49792704e-05
      -7.24273414e-05 -7.45388994e-20 -6.94221162e-05 -9.03404798e-05 0.
      7.61319607e-05 1.65281526e-04 8.39418572e-05 8.32423684e-05
      2.06898185e-05 -8.20391651e-05 -2.40468464e-04 -2.22794100e-04
      -4.10936336e-05 1.54248883e-05 3.52293682e-05 4.54346082e-05
      2.53185193e-04 9.32804760e-05 -7.45388994e-20 -1.49792704e-05
      -1.17689691e-04 -3.53367301e-04 -3.64239590e-04 -2.98926054e-04
      -5.19659079e-05 1.54248883e-05 1.74833243e-04 3.64239590e-04
      3.64239590e-04 1.81522570e-04 9.93747744e-05 3.32121126e-05
      -5.23761701e-05 -2.99085310e-04 -3.64239590e-04 -3.13905330e-04
      -5.19659079e-05 1.54248883e-05 1.74833243e-04 3.64239590e-04
      3.64239590e-04 3.48514819e-04 2.41973525e-04 1.71561420e-04
      -1.54248883e-05 -6.76125201e-05 -3.31620569e-04 -1.59323550e-04
      -4.10936336e-05 1.54248883e-05 1.44547812e-04 3.64239590e-04
      2.50538200e-04 1.06407155e-04 6.53135212e-05 0. 0. 0.
      1.37875850e-05 -8.47461797e-06 -7.45388994e-20 1.54248883e-05
      1.44547812e-04 3.64239590e-04 2.61356647e-04 1.08722761e-05 0. 0.
      0. 0. 1.80359366e-05 1.20404940e-04 -7.45388994e-20
      -7.45388994e-20 6.76125201e-05 1.97920672e-04 1.54835390e-04
      3.40061365e-06 -1.77613925e-04 -3.26128735e-04 -6.58311255e-05 0.
      0. 1.13261427e-04 4.93979496e-05 -7.45388994e-20 -7.45388994e-20
      -7.45388994e-20 -7.45388994e-20 -7.45388994e-20 -7.45388994e-20
      -7.45388994e-20 -2.48281343e-04 -1.29277119e-04 0. 0.
      -3.96145151e-06 -7.45388994e-20 -7.45388994e-20 -7.45388994e-20
      -7.45388994e-20 -7.45388994e-20 -7.45388994e-20 -7.45388994e-20
      -6.53135212e-05 -2.61558216e-05 0. 0. 6.53135212e-05
      -7.45388994e-20 -7.45388994e-20 -7.45388994e-20 -7.45388994e-20
      -7.45388994e-20 -7.45388994e-20 -7.45388994e-20 -7.45388994e-20
      -3.45212611e-05 0. 0. 0. -1.78001974e-05 3.72250215e-05
      1.88460544e-05 -9.23165487e-07 -6.99492546e-07 -7.45388994e-20
      -2.97098595e-05 -2.28965455e-05 1.67335256e-05 0. 0.
      7.80950359e-07 1.02029488e-04 1.08722761e-05 1.49792704e-05
      -6.11763317e-05 -7.78887843e-05 -2.83980444e-05 -5.16845830e-05
      -2.24484684e-05 0. 0. 6.45355685e-05 -1.86451653e-05
      -5.59033797e-05 0. 0. 0. 0. 0. 0. 0. 0. 0. -3.36704215e-05
      -7.45388994e-20 1.08181112e-05 -1.19323795e-05 3.28426904e-05 0.
      0. 0. 0. 0. 4.73668206e-06 -8.78166793e-06 -7.45388994e-20
      -7.45388994e-20 -1.49792704e-05 4.45618269e-07 -3.90109672e-05
      -1.09239645e-05 -1.30870012e-05 3.28426904e-05 4.40293734e-05
      -1.40618631e-05 -6.53081297e-05 -7.45388994e-20 -7.45388994e-20
      -7.45388994e-20</_>
    <_>
      -4.23516474e-20 -4.23516474e-20 -4.23516474e-20 -5.85529269e-05
      -5.67764037e-05 -4.52785898e-05 -3.12604825e-05 3.03980760e-05
      5.79625776e-05 9.14951452e-05 1.54291938e-05 1.17070374e-06
      -4.23516474e-20 -1.36981307e-05 -1.20230849e-04 -1.05578692e-04
      -6.39317077e-05 -5.19348723e-05 0. 0. 0. 6.46938206e-05
      1.10086825e-04 1.17070374e-06 -4.23516474e-20 -8.13338193e-05
      -1.18666481e-04 -6.50138827e-05 0. 0. 0. 0. 0. 1.12241205e-05
      8.74459147e-05 1.53007677e-05 -1.26252626e-05 -1.08205066e-04
      -7.56846130e-05 0. 5.71517849e-05 1.79815597e-05 1.79815597e-05
      -2.36277319e-05 -6.70813897e-05 -7.22394470e-05 -3.63735762e-06
      -1.01040223e-05 -4.23516474e-20 -3.27657035e-05 0. 9.26991124e-05
      1.43447425e-04 1.00420635e-04 -1.51617232e-05 -4.88526748e-05
      -1.15553754e-04 -1.71489373e-04 -1.58864117e-04 -5.60868357e-05
      -4.23516474e-20 9.58371820e-05 1.71489373e-04 1.71489373e-04
      1.19837183e-04 7.01395256e-05 -4.23516474e-20 -1.36981307e-05
      -1.28035725e-04 -1.71489373e-04 -1.70088228e-04 -5.60868357e-05
      6.48197311e-05 1.71489373e-04 1.71489373e-04 1.71489373e-04
      1.01245503e-04 3.19066712e-05 1.39383519e-05 -1.06671097e-04
      -1.56060181e-04 -1.71489373e-04 -1.58864117e-04 -1.26331815e-05
      7.90782215e-05 1.71489373e-04 1.71489373e-04 1.71489373e-04
      2.71662429e-05 7.26380949e-06 1.51215019e-07 0. -5.51266794e-06
      -8.08190962e-05 -8.88308932e-07 -1.51215019e-07 8.16073807e-05
      1.71489373e-04 1.71489373e-04 1.30822169e-04 6.03570224e-05 0. 0.
      0. 0. 2.80419499e-05 5.73055295e-05 1.17070374e-06 1.14783470e-04
      1.71489373e-04 1.71489373e-04 1.60265248e-04 7.59629547e-05
      1.09654211e-05 -6.66774431e-05 0. 0. 0. 6.93694601e-05
      2.64915834e-05 1.13466267e-04 1.71489373e-04 1.71489373e-04
      1.71489373e-04 1.07840351e-04 -4.23516474e-20 -3.23121385e-05
      -8.43461166e-05 -3.69986333e-06 0. 0. -4.73980435e-06
      1.33609574e-04 1.71489373e-04 1.71489373e-04 1.71489373e-04
      -4.23516474e-20 -4.23516474e-20 -4.23516474e-20 -6.28428324e-07
      2.53449125e-05 0. 0. -3.21703883e-05 7.03323967e-05 1.71489373e-04
      1.71489373e-04 1.71489373e-04 2.52915970e-06 -4.23516474e-20
      -4.23516474e-20 1.19968345e-05 2.99102940e-05 0. 0.
      -5.12564020e-06 6.36490295e-05 9.61326878e-05 9.86618470e-05
      1.02932034e-04 3.32040217e-05 2.52915970e-06 -4.23516474e-20
      -5.65605078e-05 2.32211241e-05 0. 0. -1.45635504e-05
      -1.01497906e-04 -3.82867729e-05 1.13753358e-05 1.27764779e-05
      5.62301320e-05 -1.80896204e-05 -2.93137418e-05 -1.35599912e-05 0.
      0. 1.40114196e-06 9.21802712e-06 -1.12208763e-04 -1.06669642e-04
      0. 0. 0. 0. 0. 0. 0. 0. 1.34199408e-05 1.01948865e-06
      -1.27764779e-05 -8.61798762e-05 -8.74588441e-05 -4.38930474e-05 0.
      0. 0. 0. 1.36981307e-05 5.08238700e-05 5.26716831e-05
      -4.23516474e-20 -1.12241205e-05 -1.13753358e-05 -1.46842749e-05
      -3.48875938e-06 1.83679513e-05 -3.01949149e-05 8.57249051e-06
      5.18507914e-05 3.73247967e-05 -1.51215019e-07 -4.23516474e-20
      -4.23516474e-20</_>
    <_>
      1.57616923e-05 7.34989299e-05 9.92364658e-05 3.78339209e-05
      -1.06836633e-05 -3.58613288e-05 -9.84439703e-06 -2.02453739e-05
      1.81194282e-05 7.41372205e-05 7.41372205e-05 4.32427732e-05
      1.10569083e-04 1.05607782e-04 4.56219132e-05 0. 0. 0. 0. 0.
      2.42046899e-05 5.18722773e-05 2.00968047e-04 7.92720457e-05
      1.57918024e-04 1.01026876e-06 0. 0. 0. 0. 0. 0. 0. 0.
      1.21502613e-04 1.36416813e-04 9.27585352e-05 1.01026876e-06
      -1.44849564e-05 5.32761005e-05 6.64154577e-05 4.75231136e-05
      7.50041945e-05 -8.87494025e-06 0. 0. 7.33309935e-05 1.28106170e-04
      3.29400755e-05 3.99446471e-05 3.26006375e-05 -2.82998153e-05
      2.71050543e-20 3.79293306e-06 3.79293306e-06 -1.38823707e-05
      -3.08944473e-05 0. 4.96688290e-06 3.92420370e-05 2.71050543e-20
      2.68886106e-05 2.71050543e-20 2.71050543e-20 2.71050543e-20
      2.71050543e-20 2.71050543e-20 -1.27084204e-05 0. 0.
      -5.95843558e-05 3.41072155e-05 2.71050543e-20 2.71050543e-20
      2.71050543e-20 2.71050543e-20 2.71050543e-20 -1.86927912e-06
      -1.13605180e-04 -1.80245606e-05 0. 0. -2.02101710e-05
      -1.04345381e-05 2.71050543e-20 2.71050543e-20 2.71050543e-20
      -6.21510408e-05 -9.86647865e-05 -1.46618811e-04 -1.75790381e-04 0.
      0. 0. 1.50373471e-05 -2.51776637e-05 2.71050543e-20 2.71050543e-20
      2.71050543e-20 -2.91715733e-05 -1.66191370e-04 -2.00968047e-04
      -1.69370003e-04 0. 0. 6.21307163e-06 -9.00720897e-06
      2.71050543e-20 2.71050543e-20 2.71050543e-20 2.71050543e-20
      -2.42046899e-05 -7.51749030e-05 -1.10202156e-04 -4.71054518e-05 0.
      0. -6.45512409e-05 -7.81091949e-05 -5.51525336e-05 2.71050543e-20
      2.71050543e-20 2.71050543e-20 2.71050543e-20 2.71050543e-20
      2.71050543e-20 1.19269011e-04 3.55848861e-05 0. -9.48073939e-05
      -2.00968047e-04 -6.26318288e-05 2.71050543e-20 2.71050543e-20
      2.71050543e-20 2.71050543e-20 2.71050543e-20 2.71050543e-20
      2.00968047e-04 1.41270502e-04 5.48537828e-05 -9.99422118e-05
      -2.00968047e-04 -1.55308837e-04 2.71050543e-20 2.71050543e-20
      2.71050543e-20 2.71050543e-20 2.71050543e-20 7.90361955e-05
      2.00968047e-04 2.00968047e-04 2.08568908e-05 -1.73486958e-04
      -2.00968047e-04 -1.38817006e-04 -1.07085989e-05 -1.07504107e-04
      -9.86647865e-05 -2.80241784e-05 2.71050543e-20 1.10569083e-04
      1.93488755e-04 1.50412176e-04 -3.19671017e-05 -2.00968047e-04
      -2.00968047e-04 -7.41419572e-05 -1.36675677e-04 -1.76655143e-04
      -1.45264406e-04 -1.16092844e-04 -5.15416032e-05 2.64996761e-05
      7.86621313e-05 2.51776637e-05 -1.35140072e-04 -2.00968047e-04
      -1.26370825e-04 -6.69186193e-05 -1.57433475e-04 -2.00968047e-04
      -2.00968047e-04 -2.00968047e-04 -9.16756981e-05 -5.83755282e-05 0.
      -3.02561530e-05 -2.00968047e-04 -1.33206981e-04 -7.31316904e-05
      -2.51776637e-05 -9.37145232e-05 -1.02303260e-04 -1.26270184e-04
      -2.00968047e-04 -1.21931851e-04 -3.08944473e-05 0. -6.22795851e-05
      -1.26270184e-04 -6.45429536e-05 -2.51776637e-05 2.71050543e-20
      2.71050543e-20 -7.99083209e-05 -8.48752024e-05 -9.04852204e-05
      -1.58458904e-04 9.91077013e-06 2.69198008e-05 -8.35984683e-05
      -6.06705144e-05 -2.51776637e-05 2.71050543e-20 2.71050543e-20</_>
    <_>
      5.42101086e-20 8.03426374e-05 7.24164856e-05 5.66834788e-05
      4.50256011e-05 3.99397504e-05 9.22597337e-06 7.61716656e-05
      1.25273320e-04 5.42101086e-20 5.42101086e-20 5.42101086e-20
      8.03426374e-05 -5.56942068e-05 1.19333035e-05 0. 0. 0. 0. 0.
      3.25630845e-06 1.06025065e-04 5.42101086e-20 5.42101086e-20
      5.13399063e-05 -8.62480010e-05 0. 0. 0. 0. 0. 0. 0. 0.
      3.76559583e-05 5.42101086e-20 3.75368545e-05 0. 0. 3.75232630e-05
      -3.34693577e-05 -7.65577133e-05 -1.28626343e-04 -3.51622075e-05 0.
      0. 4.34929279e-05 -1.31254355e-05 8.69891519e-05 1.42827193e-04
      8.16657484e-05 1.28825443e-04 3.62717151e-06 5.42101086e-20
      -5.96966447e-06 -8.59010979e-05 0. 0. 0. -3.23408472e-06
      1.42046832e-04 3.32862575e-04 3.32862575e-04 1.19342338e-04
      8.71302109e-06 5.42101086e-20 5.42101086e-20 -7.99314294e-05
      -8.71302109e-06 0. 0. 4.07380867e-05 9.02454558e-05 3.32862575e-04
      3.32862575e-04 3.22959764e-04 5.18013767e-05 -6.49972426e-05
      -9.41831531e-05 -8.22847069e-05 0. 0. -1.01275509e-05
      9.07553913e-05 9.02454558e-05 2.89774209e-04 3.32862575e-04
      2.50622368e-04 8.70662261e-05 2.37249333e-06 -9.59683621e-06 0. 0.
      7.92614901e-06 7.45798461e-05 8.71302109e-06 9.02454558e-05
      9.02454558e-05 2.80793931e-04 1.89445534e-04 5.44569994e-05 0. 0.
      0. 0. 2.25955664e-05 2.16117242e-05 5.42101086e-20 9.02454558e-05
      9.02454558e-05 2.80793931e-04 2.77537620e-04 1.61530916e-04
      9.48575544e-05 6.89547051e-06 0. 0. 0. 2.44054299e-05
      -2.48337001e-05 9.02454558e-05 3.14258214e-04 3.32862575e-04
      2.52519938e-04 2.42617112e-04 1.41879151e-04 1.16911091e-04
      4.63394463e-06 0. 0. 0. -6.93878756e-05 1.70431886e-04
      3.32862575e-04 3.32862575e-04 2.42617112e-04 1.86043726e-05
      8.71302109e-06 5.42101086e-20 -3.67205721e-05 8.85198533e-05 0. 0.
      -4.34835310e-05 2.00874769e-04 3.32862575e-04 3.32862575e-04
      1.62430690e-04 8.71302109e-06 5.42101086e-20 5.42101086e-20
      -5.20686372e-05 6.48186906e-05 0. 0. 2.71627105e-05 1.27444422e-04
      1.39318057e-04 1.88770355e-04 1.86173202e-04 -1.56662554e-05
      5.42101086e-20 -2.70059409e-05 -6.35053948e-05 6.44114189e-05 0.
      0. -2.07295998e-05 -7.04253980e-05 0. 1.16480056e-04
      1.19736360e-04 1.98822108e-05 1.90953397e-05 1.27783915e-06
      -5.40471046e-05 0. 0. 2.95971149e-05 -6.52055460e-05
      2.24215023e-06 -9.09615919e-05 0. 0. 0. 0. 0. 0. 0. 2.95971149e-05
      -1.98599864e-05 8.71302109e-06 -7.50429754e-05 -8.57356463e-06
      -5.69034128e-05 0. 0. 0. 0. 0. 3.64925872e-05 5.84132104e-05
      1.86043726e-05 5.42101086e-20 5.42101086e-20 -3.93937262e-05
      4.68483959e-05 -2.84715188e-05 -1.06769461e-04 3.64925872e-05
      1.88051363e-05 1.52792527e-05 3.14547979e-05 8.71302109e-06
      5.42101086e-20 5.42101086e-20</_>
    <_>
      -7.45388994e-20 -7.45388994e-20 1.56753285e-05 5.98335791e-05
      2.48413617e-05 1.70281601e-05 7.27920342e-05 2.16512461e-07
      1.72393902e-05 3.86394167e-05 -7.45388994e-20 -7.45388994e-20
      -7.45388994e-20 -4.95209169e-05 -1.31078195e-05 0. 0. 0. 0. 0.
      3.83396291e-05 -2.04406642e-05 4.85669716e-06 -7.45388994e-20
      -5.09789825e-05 -1.12388203e-04 0. 0. 0. 0. 0. 0. 0.
      -1.98118432e-05 7.01194313e-06 4.85669716e-06 -3.98272903e-07 0.
      0. 3.88229637e-05 4.83543154e-05 2.22786584e-05 2.89980781e-05 0.
      0. 0. -1.36505951e-05 4.81091702e-05 4.30744658e-05 7.91231796e-05
      6.82212267e-05 7.62035561e-05 4.91933606e-05 -7.45388994e-20
      -1.38667001e-05 -3.72875365e-05 0. 0. 1.74610329e-06
      5.73973593e-05 1.61389908e-04 2.65075825e-04 2.65075825e-04
      1.48697582e-04 -7.45388994e-20 -7.45388994e-20 -7.45388994e-20
      -4.83622971e-05 -6.13139564e-05 0. 0. 6.22304724e-05
      1.65400255e-04 2.65075825e-04 2.65075825e-04 1.48697582e-04
      -7.45388994e-20 -7.38139715e-06 -1.41173296e-04 -9.09342780e-05
      -6.13139564e-05 0. 4.79504633e-05 8.28161719e-05 8.28248812e-05
      2.65075825e-04 2.65075825e-04 2.24100324e-04 -7.41792633e-07
      -1.59697505e-04 -1.69868057e-04 -7.11077591e-05 0. 0.
      1.31042179e-04 1.79375493e-04 3.62084429e-05 2.44928669e-04
      2.40906418e-04 1.46556427e-04 6.07627990e-05 -8.18996632e-05
      -8.18996632e-05 0. 0. 5.68757096e-05 1.65598962e-04 2.01552190e-04
      -7.45388994e-20 9.36167780e-05 2.40906418e-04 1.79262730e-04
      1.46556427e-04 7.19819291e-05 1.09019520e-05 0. 0. 0.
      1.35325477e-04 9.78263924e-05 -7.45388994e-20 -7.45388994e-20
      8.37521002e-05 2.43814400e-04 2.65075825e-04 2.65075825e-04
      1.48302541e-04 4.41193661e-05 0. 0. 0. 8.73896352e-05
      -7.45388994e-20 -7.45388994e-20 -7.45388994e-20 4.22622143e-05
      1.01487334e-04 1.29002437e-04 1.52034641e-04 1.79262730e-04
      7.32608678e-05 0. -2.12614232e-05 -9.15324272e-05 -7.45388994e-20
      -7.45388994e-20 -7.45388994e-20 -7.45388994e-20 -7.45388994e-20
      -7.45388994e-20 1.23218531e-04 2.20320711e-04 7.84897202e-05 0.
      -6.48793284e-05 -1.26299492e-04 -8.25660209e-06 -7.32955668e-05
      -5.71063101e-05 -1.09019520e-05 3.10552205e-05 7.56453737e-05
      1.96380468e-04 2.21747861e-04 4.37346389e-05 0. -1.16378244e-04
      -8.71644152e-05 -1.20657569e-04 -8.13263759e-05 -1.65329147e-05
      4.82213582e-05 4.82213582e-05 1.29547727e-04 1.27801628e-04
      4.37346389e-05 0. -6.44407919e-05 -2.21024005e-04 -9.83054852e-05
      -1.32205460e-04 -2.07042667e-05 0. 0. 0. 0. 0. 0. -1.07784996e-04
      -1.87613448e-04 -9.83054852e-05 -4.37346389e-05 -4.66708407e-05
      1.56977258e-05 4.97249130e-05 0. 0. 0. -6.10670686e-05
      -1.07784996e-04 -2.15350912e-04 -1.13983624e-04 -4.37346389e-05
      -7.45388994e-20 1.89581642e-05 -1.20129162e-05 5.91657263e-05
      4.34048525e-05 -5.99589184e-05 -6.78538781e-05 -1.32555142e-04
      -1.42045799e-04 -6.96501593e-05 -4.37346389e-05 -7.45388994e-20
      -7.45388994e-20</_>
    <_>
      1.60936260e-20 1.60936260e-20 8.01935312e-05 9.68916574e-05
      9.17103534e-05 9.47888620e-05 2.16647932e-05 -1.62362976e-05
      -4.70523519e-05 -2.91431243e-05 1.60936260e-20 1.60936260e-20
      1.60936260e-20 5.92752876e-05 1.16206465e-04 1.16206465e-04
      1.16206465e-04 5.74124242e-05 0. 0. 0. -5.18130537e-06
      6.96261259e-06 1.60936260e-20 1.60936260e-20 6.07385737e-05
      1.16206465e-04 1.16206465e-04 1.16206465e-04 0. 0. 0. 0. 0.
      1.26109917e-05 1.60936260e-20 5.18130537e-06 6.07385737e-05
      1.16206465e-04 1.16206465e-04 3.76369208e-05 -5.15059128e-06
      -8.68596362e-06 -8.68596362e-06 -8.68596362e-06 -4.35467846e-05
      -2.81616940e-05 1.60936260e-20 5.18130537e-06 5.72032041e-05
      1.16206465e-04 8.60424261e-05 -4.81077186e-05 -1.16206465e-04
      -1.16206465e-04 -1.16206465e-04 -1.16206465e-04 -1.16206465e-04
      -2.81616940e-05 1.60936260e-20 5.18130537e-06 5.72032041e-05
      1.16206465e-04 1.39599688e-05 -9.22607160e-06 -2.09905411e-05
      -8.84533438e-05 -1.16206465e-04 -1.16206465e-04 -1.16206465e-04
      -2.81616940e-05 1.60936260e-20 5.18130537e-06 5.72032041e-05
      6.62669263e-05 0. 0. 0. 1.26611621e-05 -1.23045784e-05
      -1.23045784e-05 -1.11055873e-04 -2.81616940e-05 1.60936260e-20
      5.18130537e-06 2.70391647e-05 2.36993656e-05 0. 0. 1.57396698e-05
      5.79031439e-05 0. 0. -9.22607160e-06 -2.30111036e-05
      1.60936260e-20 5.18130537e-06 -1.82528402e-05 0. 0. 0.
      5.87940413e-05 7.21048709e-05 1.31138972e-06 0. 0. 3.53104078e-05
      1.60936260e-20 -3.13544479e-05 -8.32810329e-05 -2.87777748e-05
      -2.13868898e-05 -2.86730719e-05 1.05764184e-05 -3.24555440e-05
      -2.74663853e-05 0. 0. 4.59037074e-05 3.27654852e-05
      -7.67674283e-05 -1.16206465e-04 -1.16206465e-04 -1.16206465e-04
      -1.00466794e-04 -5.70143420e-05 -5.70143420e-05 -1.06980391e-04
      -3.29037139e-05 0. 6.43678140e-05 5.34399733e-05 -9.25295099e-05
      -1.16206465e-04 -1.16206465e-04 -1.16206465e-04 -1.16206465e-04
      -1.16206465e-04 -1.16206465e-04 -1.16206465e-04 -6.62077073e-05 0.
      0. 6.82603350e-05 -1.02246500e-04 -1.16206465e-04 -1.16206465e-04
      -1.16206465e-04 -1.16206465e-04 -1.16206465e-04 -1.16206465e-04
      -1.16206465e-04 -6.39728096e-05 0. 0. 3.01640375e-05
      -3.53920245e-06 -3.78052355e-05 -5.17427907e-05 -8.42279842e-05
      -8.93785764e-05 -1.16206465e-04 -1.16206465e-04 -9.58442324e-05
      -6.61387912e-06 0. 0. 5.85524758e-05 8.40087669e-05 9.77423551e-05
      1.12161702e-04 7.45187353e-05 1.30002536e-05 1.29778427e-05
      -2.46366690e-05 0. 0. 0. 1.57396698e-05 -3.07108385e-05
      5.66126364e-05 1.16206465e-04 1.16206465e-04 1.16206465e-04
      1.03316132e-04 1.57620798e-05 1.57396698e-05 0. 0. 0.
      -6.93165275e-05 -2.20894181e-05 9.22607160e-06 4.03763370e-05
      1.16206465e-04 1.16206465e-04 7.27540100e-05 2.96996368e-05
      1.57396698e-05 0. -1.62362976e-05 -8.09302583e-05 -4.57663737e-05
      -7.03027617e-05 1.60936260e-20 2.97176921e-05 4.03763370e-05
      6.40035214e-05 5.06900033e-05 7.27540100e-05 1.17515074e-05
      -4.70523519e-05 -6.70514637e-05 -4.75460729e-05 -4.34524554e-05
      -1.97755016e-05</_>
    <_>
      1.35525272e-20 1.35525272e-20 1.35525272e-20 1.35525272e-20
      1.35525272e-20 1.74480419e-06 -6.11301584e-05 -4.06180079e-05
      -4.96572784e-06 1.36145745e-05 3.85231397e-05 1.80790666e-05
      1.35525272e-20 1.35525272e-20 1.35525272e-20 1.35525272e-20
      1.72713299e-05 3.33614662e-05 0. 0. 0. 0. 8.64937901e-05
      3.85231397e-05 1.35525272e-20 1.35525272e-20 1.35525272e-20
      9.31267277e-05 2.03838485e-04 0. 0. 0. 0. 0. 1.22553305e-04
      1.05746032e-04 1.35525272e-20 1.35525272e-20 1.06413943e-04
      2.03838485e-04 4.61375348e-05 0. -1.74480419e-06 -1.74480419e-06
      -1.74480419e-06 -2.21888749e-05 8.48378986e-05 8.53019665e-05
      1.35525272e-20 2.56136555e-05 2.03838485e-04 1.24666869e-04 0.
      -1.74480419e-06 -1.19246710e-04 -1.68186205e-04 -2.03838485e-04
      -2.03838485e-04 -8.12851868e-05 1.35525272e-20 1.35525272e-20
      9.08874135e-05 2.03838485e-04 4.61375348e-05 0. -6.12659351e-05
      -1.47031955e-04 -2.03838485e-04 -2.03838485e-04 -2.03838485e-04
      -8.12851868e-05 1.35525272e-20 2.56136555e-05 2.03838485e-04
      6.04624693e-05 0. 0. -7.50476611e-05 -6.07227266e-05
      -8.00133857e-05 -1.53154193e-04 -2.03838485e-04 -6.23489177e-05
      1.35525272e-20 7.45531506e-05 1.43603145e-04 0. 0. 0.
      -2.13273506e-05 6.33881355e-05 0. -3.56522833e-05 -8.08211262e-05
      -6.23489177e-05 1.35525272e-20 1.31359688e-04 4.27522791e-05 0. 0.
      0. 9.91466732e-05 9.18154838e-05 2.84273483e-05 0. 0.
      3.13492528e-05 1.35525272e-20 1.19018943e-04 0. 0. 0.
      3.32612035e-05 1.30521541e-04 3.02312346e-05 6.23847245e-06 0. 0.
      5.67740863e-05 7.48856037e-05 -2.74191298e-05 0. 0. 0.
      -9.54391908e-06 -8.23808368e-05 -1.30959277e-04 -1.44317353e-04
