<?xml version="1.0"?>
<opencv_storage>
<opencv_ml_boost>
  <format>3</format>
  <is_classifier>1</is_classifier>
  <var_all>217</var_all>
  <var_count>216</var_count>
  <ord_var_count>216</ord_var_count>
  <cat_var_count>1</cat_var_count>
  <training_params>
    <boosting_type>GentleAdaboost</boosting_type>
    <use_surrogates>0</use_surrogates>
    <max_categories>10</max_categories>
    <regression_accuracy>9.9999997764825821e-03</regression_accuracy>
    <max_depth>1</max_depth>
    <min_sample_count>10</min_sample_count>
    <cross_validation_folds>0</cross_validation_folds>
    <weight_trimming_rate>9.4999999999999996e-01</weight_trimming_rate></training_params>
  <global_var_idx>1</global_var_idx>
  <var_idx>
    0 1 2 3 4 5 6 7 8 9 10 11 12 13 14 15 16 17 18 19 20 21 22 23 24 25
    26 27 28 29 30 31 32 33 34 35 36 37 38 39 40 41 42 43 44 45 46 47 48
    49 50 51 52 53 54 55 56 57 58 59 60 61 62 63 64 65 66 67 68 69 70 71
    72 73 74 75 76 77 78 79 80 81 82 83 84 85 86 87 88 89 90 91 92 93 94
    95 96 97 98 99 100 101 102 103 104 105 106 107 108 109 110 111 112
    113 114 115 116 117 118 119 120 121 122 123 124 125 126 127 128 129
    130 131 132 133 134 135 136 137 138 139 140 141 142 143 144 145 146
    147 148 149 150 151 152 153 154 155 156 157 158 159 160 161 162 163
    164 165 166 167 168 169 170 171 172 173 174 175 176 177 178 179 180
    181 182 183 184 185 186 187 188 189 190 191 192 193 194 195 196 197
    198 199 200 201 202 203 204 205 206 207 208 209 210 211 212 213 214
    215</var_idx>
  <var_type>
    0 0 0 0 0 0 0 0 0 0 0 0 0 0 0 0 0 0 0 0 0 0 0 0 0 0 0 0 0 0 0 0 0 0
    0 0 0 0 0 0 0 0 0 0 0 0 0 0 0 0 0 0 0 0 0 0 0 0 0 0 0 0 0 0 0 0 0 0
    0 0 0 0 0 0 0 0 0 0 0 0 0 0 0 0 0 0 0 0 0 0 0 0 0 0 0 0 0 0 0 0 0 0
    0 0 0 0 0 0 0 0 0 0 0 0 0 0 0 0 0 0 0 0 0 0 0 0 0 0 0 0 0 0 0 0 0 0
    0 0 0 0 0 0 0 0 0 0 0 0 0 0 0 0 0 0 0 0 0 0 0 0 0 0 0 0 0 0 0 0 0 0
    0 0 0 0 0 0 0 0 0 0 0 0 0 0 0 0 0 0 0 0 0 0 0 0 0 0 0 0 0 0 0 0 0 0
    0 0 0 0 0 0 0 0 0 0 0 0 1</var_type>
  <cat_ofs>
    0 0 0 0 0 0 0 0 0 0 0 0 0 0 0 0 0 0 0 0 0 0 0 0 0 0 0 0 0 0 0 0 0 0
    0 0 0 0 0 0 0 0 0 0 0 0 0 0 0 0 0 0 0 0 0 0 0 0 0 0 0 0 0 0 0 0 0 0
    0 0 0 0 0 0 0 0 0 0 0 0 0 0 0 0 0 0 0 0 0 0 0 0 0 0 0 0 0 0 0 0 0 0
    0 0 0 0 0 0 0 0 0 0 0 0 0 0 0 0 0 0 0 0 0 0 0 0 0 0 0 0 0 0 0 0 0 0
    0 0 0 0 0 0 0 0 0 0 0 0 0 0 0 0 0 0 0 0 0 0 0 0 0 0 0 0 0 0 0 0 0 0
    0 0 0 0 0 0 0 0 0 0 0 0 0 0 0 0 0 0 0 0 0 0 0 0 0 0 0 0 0 0 0 0 0 0
    0 0 0 0 0 0 0 0 0 0 0 0 0 0 0 0 0 0 0 0 0 0 0 0 0 0 0 0 0 0 0 0 0 0
    0 0 0 0 0 0 0 0 0 0 0 0 0 0 0 0 0 0 0 0 0 0 0 0 0 0 0 0 0 0 0 0 0 0
    0 0 0 0 0 0 0 0 0 0 0 0 0 0 0 0 0 0 0 0 0 0 0 0 0 0 0 0 0 0 0 0 0 0
    0 0 0 0 0 0 0 0 0 0 0 0 0 0 0 0 0 0 0 0 0 0 0 0 0 0 0 0 0 0 0 0 0 0
    0 0 0 0 0 0 0 0 0 0 0 0 0 0 0 0 0 0 0 0 0 0 0 0 0 0 0 0 0 0 0 0 0 0
    0 0 0 0 0 0 0 0 0 0 0 0 0 0 0 0 0 0 0 0 0 0 0 0 0 0 0 0 0 0 0 0 0 0
    0 0 0 0 0 0 0 0 0 0 0 0 0 0 0 0 0 0 0 0 0 0 0 0</cat_ofs>
  <class_labels>
    -1 3</class_labels>
  <missing_subst>
    0. 0. 0. 0. 0. 0. 0. 0. 0. 0. 0. 0. 0. 0. 0. 0. 0. 0. 0. 0. 0. 0. 0.
    0. 0. 0. 0. 0. 0. 0. 0. 0. 0. 0. 0. 0. 0. 0. 0. 0. 0. 0. 0. 0. 0. 0.
    0. 0. 0. 0. 0. 0. 0. 0. 0. 0. 0. 0. 0. 0. 0. 0. 0. 0. 0. 0. 0. 0. 0.
    0. 0. 0. 0. 0. 0. 0. 0. 0. 0. 0. 0. 0. 0. 0. 0. 0. 0. 0. 0. 0. 0. 0.
    0. 0. 0. 0. 0. 0. 0. 0. 0. 0. 0. 0. 0. 0. 0. 0. 0. 0. 0. 0. 0. 0. 0.
    0. 0. 0. 0. 0. 0. 0. 0. 0. 0. 0. 0. 0. 0. 0. 0. 0. 0. 0. 0. 0. 0. 0.
    0. 0. 0. 0. 0. 0. 0. 0. 0. 0. 0. 0. 0. 0. 0. 0. 0. 0. 0. 0. 0. 0. 0.
    0. 0. 0. 0. 0. 0. 0. 0. 0. 0. 0. 0. 0. 0. 0. 0. 0. 0. 0. 0. 0. 0. 0.
    0. 0. 0. 0. 0. 0. 0. 0. 0. 0. 0. 0. 0. 0. 0. 0. 0. 0. 0. 0. 0. 0. 0.
    0. 0. 0. 0. 0. 0. 0. 0. 0. 0.</missing_subst>
  <ntrees>100</ntrees>
  <trees>
    <_>
      <nodes>
        <_>
          <depth>0</depth>
          <value>-8.2458888018793430e-01</value>
          <splits>
            <_><var>62</var>
              <quality>7.1481764316558838e-01</quality>
              <le>1.2750000000000000e+02</le></_></splits></_>
        <_>
          <depth>1</depth>
          <value>-9.9709724238026110e-01</value></_>
        <_>
          <depth>1</depth>
          <value>-6.2244897959183676e-01</value></_></nodes></_>
    <_>
      <nodes>
        <_>
          <depth>0</depth>
          <value>-4.1738321974526532e-01</value>
          <splits>
            <_><var>138</var>
              <quality>4.4394451379776001e-01</quality>
              <le>1.2750000000000000e+02</le></_></splits></_>
        <_>
          <depth>1</depth>
          <value>-1.</value></_>
        <_>
          <depth>1</depth>
          <value>4.5589634960762244e-02</value></_></nodes></_>
    <_>
      <nodes>
        <_>
          <depth>0</depth>
          <value>-1.9004451678653542e-01</value>
          <splits>
            <_><var>86</var>
              <quality>5.1373207569122314e-01</quality>
              <le>1.2750000000000000e+02</le></_></splits></_>
        <_>
          <depth>1</depth>
          <value>-1.</value></_>
        <_>
          <depth>1</depth>
          <value>4.2941254535113477e-01</value></_></nodes></_>
    <_>
      <nodes>
        <_>
          <depth>0</depth>
          <value>-2.4840087893367105e-01</value>
          <splits>
            <_><var>155</var>
              <quality>4.8574018478393555e-01</quality>
              <le>1.2750000000000000e+02</le></_></splits></_>
        <_>
          <depth>1</depth>
          <value>3.6802657126698879e-01</value></_>
        <_>
          <depth>1</depth>
          <value>-9.5690352465608131e-01</value></_></nodes></_>
    <_>
      <nodes>
        <_>
          <depth>0</depth>
          <value>-1.9948726226585781e-01</value>
          <splits>
            <_><var>86</var>
              <quality>3.9313316345214844e-01</quality>
              <le>1.2750000000000000e+02</le></_></splits></_>
        <_>
          <depth>1</depth>
          <value>-1.</value></_>
        <_>
          <depth>1</depth>
          <value>2.6052532900444825e-01</value></_></nodes></_>
    <_>
      <nodes>
        <_>
          <depth>0</depth>
          <value>-1.6405603647322436e-01</value>
          <splits>
            <_><var>138</var>
              <quality>4.8486372828483582e-01</quality>
              <le>1.2750000000000000e+02</le></_></splits></_>
        <_>
          <depth>1</depth>
          <value>-1.</value></_>
        <_>
          <depth>1</depth>
          <value>4.0212990639243912e-01</value></_></nodes></_>
    <_>
      <nodes>
        <_>
          <depth>0</depth>
          <value>-1.9496502725488557e-01</value>
          <splits>
            <_><var>62</var>
              <quality>4.2619007825851440e-01</quality>
              <le>1.2750000000000000e+02</le></_></splits></_>
        <_>
          <depth>1</depth>
          <value>-9.7568628412683411e-01</value></_>
        <_>
          <depth>1</depth>
          <value>3.2304532485412280e-01</value></_></nodes></_>
    <_>
      <nodes>
        <_>
          <depth>0</depth>
          <value>-1.6348277790851359e-01</value>
          <splits>
            <_><var>138</var>
              <quality>3.9130443334579468e-01</quality>
              <le>1.2750000000000000e+02</le></_></splits></_>
        <_>
          <depth>1</depth>
          <value>-1.</value></_>
        <_>
          <depth>1</depth>
          <value>2.9373644471151211e-01</value></_></nodes></_>
    <_>
      <nodes>
        <_>
          <depth>0</depth>
          <value>-1.6642427047492359e-01</value>
          <splits>
            <_><var>74</var>
              <quality>3.7362229824066162e-01</quality>
              <le>1.2750000000000000e+02</le></_></splits></_>
        <_>
          <depth>1</depth>
          <value>-1.</value></_>
        <_>
          <depth>1</depth>
          <value>2.6730066742022596e-01</value></_></nodes></_>
    <_>
      <nodes>
        <_>
          <depth>0</depth>
          <value>-1.6016872131592819e-01</value>
          <splits>
            <_><var>138</var>
              <quality>3.1505885720252991e-01</quality>
              <le>1.2750000000000000e+02</le></_></splits></_>
        <_>
          <depth>1</depth>
          <value>-1.</value></_>
        <_>
          <depth>1</depth>
          <value>1.9778013869900055e-01</value></_></nodes></_>
    <_>
      <nodes>
        <_>
          <depth>0</depth>
          <value>-1.3562063303175917e-01</value>
          <splits>
            <_><var>51</var>
              <quality>3.4582147002220154e-01</quality>
              <le>1.2750000000000000e+02</le></_></splits></_>
        <_>
          <depth>1</depth>
          <value>-5.7925417712500471e-01</value></_>
        <_>
          <depth>1</depth>
          <value>6.2595971902402370e-01</value></_></nodes></_>
    <_>
      <nodes>
        <_>
          <depth>0</depth>
          <value>-1.4089012132641757e-02</value>
          <splits>
            <_><var>180</var>
              <quality>3.1920540332794189e-01</quality>
              <le>1.2750000000000000e+02</le></_></splits></_>
        <_>
          <depth>1</depth>
          <value>5.3361491550891649e-01</value></_>
        <_>
          <depth>1</depth>
          <value>-6.1329160374107217e-01</value></_></nodes></_>
    <_>
      <nodes>
        <_>
          <depth>0</depth>
          <value>-7.7372376201297055e-03</value>
          <splits>
            <_><var>52</var>
              <quality>3.3044469356536865e-01</quality>
              <le>1.2750000000000000e+02</le></_></splits></_>
        <_>
          <depth>1</depth>
          <value>-9.5968270312150394e-01</value></_>
        <_>
          <depth>1</depth>
          <value>3.5048981024788806e-01</value></_></nodes></_>
    <_>
      <nodes>
        <_>
          <depth>0</depth>
          <value>-8.8227289540909457e-02</value>
          <splits>
            <_><var>138</var>
              <quality>2.3907719552516937e-01</quality>
              <le>1.2750000000000000e+02</le></_></splits></_>
        <_>
          <depth>1</depth>
          <value>-1.</value></_>
        <_>
          <depth>1</depth>
          <value>1.7811359655734185e-01</value></_></nodes></_>
    <_>
      <nodes>
        <_>
          <depth>0</depth>
          <value>-1.0952197409215825e-01</value>
          <splits>
            <_><var>158</var>
              <quality>3.2415837049484253e-01</quality>
              <le>1.2750000000000000e+02</le></_></splits></_>
        <_>
          <depth>1</depth>
          <value>-6.7048152520974968e-01</value></_>
        <_>
          <depth>1</depth>
          <value>4.7358696993842087e-01</value></_></nodes></_>
    <_>
      <nodes>
        <_>
          <depth>0</depth>
          <value>-6.0093071770153834e-02</value>
          <splits>
            <_><var>74</var>
              <quality>2.7326706051826477e-01</quality>
              <le>1.2750000000000000e+02</le></_></splits></_>
        <_>
          <depth>1</depth>
          <value>-1.</value></_>
        <_>
          <depth>1</depth>
          <value>2.3893522009515125e-01</value></_></nodes></_>
    <_>
      <nodes>
        <_>
          <depth>0</depth>
          <value>-1.0177104475701497e-01</value>
          <splits>
            <_><var>150</var>
              <quality>2.7462929487228394e-01</quality>
              <le>1.2750000000000000e+02</le></_></splits></_>
        <_>
          <depth>1</depth>
          <value>-1.</value></_>
        <_>
          <depth>1</depth>
          <value>2.0111808219834607e-01</value></_></nodes></_>
    <_>
      <nodes>
        <_>
          <depth>0</depth>
          <value>-9.3247730890357095e-02</value>
          <splits>
            <_><var>8</var>
              <quality>3.2317310571670532e-01</quality>
              <le>1.2750000000000000e+02</le></_></splits></_>
        <_>
          <depth>1</depth>
          <value>-5.7785513424079127e-01</value></_>
        <_>
          <depth>1</depth>
          <value>5.8953120066662767e-01</value></_></nodes></_>
    <_>
      <nodes>
        <_>
          <depth>0</depth>
          <value>-4.7653372142471194e-02</value>
          <splits>
            <_><var>106</var>
              <quality>2.1614004671573639e-01</quality>
              <le>1.2750000000000000e+02</le></_></splits></_>
        <_>
          <depth>1</depth>
          <value>-6.2705234539771670e-01</value></_>
        <_>
          <depth>1</depth>
          <value>3.4000429433939183e-01</value></_></nodes></_>
    <_>
      <nodes>
        <_>
          <depth>0</depth>
          <value>-1.7430356450076671e-02</value>
          <splits>
            <_><var>154</var>
              <quality>3.0805242061614990e-01</quality>
              <le>1.2750000000000000e+02</le></_></splits></_>
        <_>
          <depth>1</depth>
          <value>3.1228769874188467e-01</value></_>
        <_>
          <depth>1</depth>
          <value>-1.</value></_></nodes></_>
    <_>
      <nodes>
        <_>
          <depth>0</depth>
          <value>-1.2324493132749074e-01</value>
          <splits>
            <_><var>86</var>
              <quality>2.5693950057029724e-01</quality>
              <le>1.2750000000000000e+02</le></_></splits></_>
        <_>
          <depth>1</depth>
          <value>-1.</value></_>
        <_>
          <depth>1</depth>
          <value>1.6694495206649401e-01</value></_></nodes></_>
    <_>
      <nodes>
        <_>
          <depth>0</depth>
          <value>-9.7427712118695192e-02</value>
          <splits>
            <_><var>41</var>
              <quality>2.1953673660755157e-01</quality>
              <le>1.2750000000000000e+02</le></_></splits></_>
        <_>
          <depth>1</depth>
          <value>-3.5766180041513546e-01</value></_>
        <_>
          <depth>1</depth>
          <value>7.4460235632776595e-01</value></_></nodes></_>
    <_>
      <nodes>
        <_>
          <depth>0</depth>
          <value>2.7141813455873316e-02</value>
          <splits>
            <_><var>138</var>
              <quality>1.6989660263061523e-01</quality>
              <le>1.2750000000000000e+02</le></_></splits></_>
        <_>
          <depth>1</depth>
          <value>-1.</value></_>
        <_>
          <depth>1</depth>
          <value>1.9999414083533645e-01</value></_></nodes></_>
    <_>
      <nodes>
        <_>
          <depth>0</depth>
          <value>-6.3411220510025956e-02</value>
          <splits>
            <_><var>8</var>
              <quality>2.2994872927665710e-01</quality>
              <le>1.2750000000000000e+02</le></_></splits></_>
        <_>
          <depth>1</depth>
          <value>-4.7565384736257316e-01</value></_>
        <_>
          <depth>1</depth>
          <value>5.1365448332710140e-01</value></_></nodes></_>
    <_>
      <nodes>
        <_>
          <depth>0</depth>
          <value>-3.7472354550616323e-02</value>
          <splits>
            <_><var>74</var>
              <quality>2.4756014347076416e-01</quality>
              <le>1.2750000000000000e+02</le></_></splits></_>
        <_>
          <depth>1</depth>
          <value>-1.</value></_>
        <_>
          <depth>1</depth>
          <value>2.2912827305157102e-01</value></_></nodes></_>
    <_>
      <nodes>
        <_>
          <depth>0</depth>
          <value>-8.2580046108882421e-02</value>
          <splits>
            <_><var>190</var>
              <quality>2.2757314145565033e-01</quality>
              <le>1.2750000000000000e+02</le></_></splits></_>
        <_>
          <depth>1</depth>
          <value>-4.1655107168132760e-01</value></_>
        <_>
          <depth>1</depth>
          <value>6.0547494041200822e-01</value></_></nodes></_>
    <_>
      <nodes>
        <_>
          <depth>0</depth>
          <value>-1.3775090519903282e-02</value>
          <splits>
            <_><var>158</var>
              <quality>1.7035558819770813e-01</quality>
              <le>1.2750000000000000e+02</le></_></splits></_>
        <_>
          <depth>1</depth>
          <value>-4.9482534160437808e-01</value></_>
        <_>
          <depth>1</depth>
          <value>3.5274897761485702e-01</value></_></nodes></_>
    <_>
      <nodes>
        <_>
          <depth>0</depth>
          <value>-1.1109677715812012e-02</value>
          <splits>
            <_><var>166</var>
              <quality>2.6124134659767151e-01</quality>
              <le>1.2750000000000000e+02</le></_></splits></_>
        <_>
          <depth>1</depth>
          <value>2.6323150352997043e-01</value></_>
        <_>
          <depth>1</depth>
          <value>-1.</value></_></nodes></_>
    <_>
      <nodes>
        <_>
          <depth>0</depth>
          <value>-8.5488266127585699e-02</value>
          <splits>
            <_><var>86</var>
              <quality>2.3648592829704285e-01</quality>
              <le>1.2750000000000000e+02</le></_></splits></_>
        <_>
          <depth>1</depth>
          <value>-1.</value></_>
        <_>
          <depth>1</depth>
          <value>1.7669156192008370e-01</value></_></nodes></_>
    <_>
      <nodes>
        <_>
          <depth>0</depth>
          <value>-1.1956064267791988e-01</value>
          <splits>
            <_><var>49</var>
              <quality>1.9967937469482422e-01</quality>
              <le>1.2750000000000000e+02</le></_></splits></_>
        <_>
          <depth>1</depth>
          <value>-4.1505615355448316e-01</value></_>
        <_>
          <depth>1</depth>
          <value>5.2434550478229836e-01</value></_></nodes></_>
    <_>
      <nodes>
        <_>
          <depth>0</depth>
          <value>2.9506399582214519e-02</value>
          <splits>
            <_><var>138</var>
              <quality>1.9008542597293854e-01</quality>
              <le>1.2750000000000000e+02</le></_></splits></_>
        <_>
          <depth>1</depth>
          <value>-1.</value></_>
        <_>
          <depth>1</depth>
          <value>2.2304356482308491e-01</value></_></nodes></_>
    <_>
      <nodes>
        <_>
          <depth>0</depth>
          <value>-5.8676871726247783e-02</value>
          <splits>
            <_><var>127</var>
              <quality>2.1930401027202606e-01</quality>
              <le>1.2750000000000000e+02</le></_></splits></_>
        <_>
          <depth>1</depth>
          <value>6.3603898461673858e-01</value></_>
        <_>
          <depth>1</depth>
          <value>-3.8592623892091177e-01</value></_></nodes></_>
    <_>
      <nodes>
        <_>
          <depth>0</depth>
          <value>-1.6494330140970903e-02</value>
          <splits>
            <_><var>140</var>
              <quality>1.2791542708873749e-01</quality>
              <le>1.2750000000000000e+02</le></_></splits></_>
        <_>
          <depth>1</depth>
          <value>-2.9704509446437943e-01</value></_>
        <_>
          <depth>1</depth>
          <value>4.5911740908383303e-01</value></_></nodes></_>
    <_>
      <nodes>
        <_>
          <depth>0</depth>
          <value>2.3869302658062587e-03</value>
          <splits>
            <_><var>68</var>
              <quality>2.2920030355453491e-01</quality>
              <le>1.2750000000000000e+02</le></_></splits></_>
        <_>
          <depth>1</depth>
          <value>2.4472209408200640e-01</value></_>
        <_>
          <depth>1</depth>
          <value>-9.8858205923825571e-01</value></_></nodes></_>
    <_>
      <nodes>
        <_>
          <depth>0</depth>
          <value>-7.9136108238101174e-02</value>
          <splits>
            <_><var>173</var>
              <quality>1.7309963703155518e-01</quality>
              <le>1.2750000000000000e+02</le></_></splits></_>
        <_>
          <depth>1</depth>
          <value>-2.9881502188858411e-01</value></_>
        <_>
          <depth>1</depth>
          <value>7.1710374325686443e-01</value></_></nodes></_>
    <_>
      <nodes>
        <_>
          <depth>0</depth>
          <value>1.6033932311738209e-02</value>
          <splits>
            <_><var>51</var>
              <quality>1.6256763041019440e-01</quality>
              <le>1.2750000000000000e+02</le></_></splits></_>
        <_>
          <depth>1</depth>
          <value>-3.1908368231984419e-01</value></_>
        <_>
          <depth>1</depth>
          <value>5.2228227211435763e-01</value></_></nodes></_>
    <_>
      <nodes>
        <_>
          <depth>0</depth>
          <value>1.2257040924933507e-02</value>
          <splits>
            <_><var>139</var>
              <quality>2.1833021938800812e-01</quality>
              <le>1.2750000000000000e+02</le></_></splits></_>
        <_>
          <depth>1</depth>
          <value>-9.7129929597403464e-01</value></_>
        <_>
          <depth>1</depth>
          <value>2.4533307292059145e-01</value></_></nodes></_>
    <_>
      <nodes>
        <_>
          <depth>0</depth>
          <value>-6.7228129863150646e-02</value>
          <splits>
            <_><var>158</var>
              <quality>1.8990431725978851e-01</quality>
              <le>1.2750000000000000e+02</le></_></splits></_>
        <_>
          <depth>1</depth>
          <value>-4.5797900476385034e-01</value></_>
        <_>
          <depth>1</depth>
          <value>4.3053397293766782e-01</value></_></nodes></_>
    <_>
      <nodes>
        <_>
          <depth>0</depth>
          <value>-1.4974535976839957e-02</value>
          <splits>
            <_><var>138</var>
              <quality>1.5598908066749573e-01</quality>
              <le>1.2750000000000000e+02</le></_></splits></_>
        <_>
          <depth>1</depth>
          <value>-1.</value></_>
        <_>
          <depth>1</depth>
          <value>1.5150628340771258e-01</value></_></nodes></_>
    <_>
      <nodes>
        <_>
          <depth>0</depth>
          <value>-5.0755424565976648e-02</value>
          <splits>
            <_><var>98</var>
              <quality>1.8821480870246887e-01</quality>
              <le>1.2750000000000000e+02</le></_></splits></_>
        <_>
          <depth>1</depth>
          <value>-1.</value></_>
        <_>
          <depth>1</depth>
          <value>1.5527786903258292e-01</value></_></nodes></_>
    <_>
      <nodes>
        <_>
          <depth>0</depth>
          <value>-6.5788378224288263e-02</value>
          <splits>
            <_><var>201</var>
              <quality>2.1668766438961029e-01</quality>
              <le>1.2750000000000000e+02</le></_></splits></_>
        <_>
          <depth>1</depth>
          <value>-4.1986708630105884e-01</value></_>
        <_>
          <depth>1</depth>
          <value>5.6496461550294452e-01</value></_></nodes></_>
    <_>
      <nodes>
        <_>
          <depth>0</depth>
          <value>-4.0211157511603436e-03</value>
          <splits>
            <_><var>119</var>
              <quality>1.6157950460910797e-01</quality>
              <le>1.2750000000000000e+02</le></_></splits></_>
        <_>
          <depth>1</depth>
          <value>8.3514906540647582e-01</value></_>
        <_>
          <depth>1</depth>
          <value>-2.0673326410349774e-01</value></_></nodes></_>
    <_>
      <nodes>
        <_>
          <depth>0</depth>
          <value>2.2528571848954675e-02</value>
          <splits>
            <_><var>74</var>
              <quality>1.6278384625911713e-01</quality>
              <le>1.2750000000000000e+02</le></_></splits></_>
        <_>
          <depth>1</depth>
          <value>-1.</value></_>
        <_>
          <depth>1</depth>
          <value>1.8927828101534286e-01</value></_></nodes></_>
    <_>
      <nodes>
        <_>
          <depth>0</depth>
          <value>-5.4662434675174135e-02</value>
          <splits>
            <_><var>180</var>
              <quality>1.9274078309535980e-01</quality>
              <le>1.2750000000000000e+02</le></_></splits></_>
        <_>
          <depth>1</depth>
          <value>6.2054010077841759e-01</value></_>
        <_>
          <depth>1</depth>
          <value>-3.4800788009212696e-01</value></_></nodes></_>
    <_>
      <nodes>
        <_>
          <depth>0</depth>
          <value>1.1421849735102220e-02</value>
          <splits>
            <_><var>166</var>
              <quality>1.5616622567176819e-01</quality>
              <le>1.2750000000000000e+02</le></_></splits></_>
        <_>
          <depth>1</depth>
          <value>1.7374413853380447e-01</value></_>
        <_>
          <depth>1</depth>
          <value>-1.</value></_></nodes></_>
    <_>
      <nodes>
        <_>
          <depth>0</depth>
          <value>-4.8381840336389668e-02</value>
          <splits>
            <_><var>8</var>
              <quality>2.2013144195079803e-01</quality>
              <le>1.2750000000000000e+02</le></_></splits></_>
        <_>
          <depth>1</depth>
          <value>-4.3951250476614784e-01</value></_>
        <_>
          <depth>1</depth>
          <value>5.3823458509519628e-01</value></_></nodes></_>
    <_>
      <nodes>
        <_>
          <depth>0</depth>
          <value>-1.0084633092214924e-02</value>
          <splits>
            <_><var>106</var>
              <quality>1.9391557574272156e-01</quality>
              <le>1.2750000000000000e+02</le></_></splits></_>
        <_>
          <depth>1</depth>
          <value>-4.2432723691539359e-01</value></_>
        <_>
          <depth>1</depth>
          <value>4.8254648548193729e-01</value></_></nodes></_>
    <_>
      <nodes>
        <_>
          <depth>0</depth>
          <value>-1.3630476800319339e-02</value>
          <splits>
            <_><var>74</var>
              <quality>1.8065811693668365e-01</quality>
              <le>1.2750000000000000e+02</le></_></splits></_>
        <_>
          <depth>1</depth>
          <value>-1.</value></_>
        <_>
          <depth>1</depth>
          <value>1.7901182917591479e-01</value></_></nodes></_>
    <_>
      <nodes>
        <_>
          <depth>0</depth>
          <value>-6.8557723850859675e-02</value>
          <splits>
            <_><var>130</var>
              <quality>2.2959645092487335e-01</quality>
              <le>1.2750000000000000e+02</le></_></splits></_>
        <_>
          <depth>1</depth>
          <value>1.8583316723863075e-01</value></_>
        <_>
          <depth>1</depth>
          <value>-1.</value></_></nodes></_>
    <_>
      <nodes>
        <_>
          <depth>0</depth>
          <value>-8.4195386975369269e-02</value>
          <splits>
            <_><var>113</var>
              <quality>1.5820455551147461e-01</quality>
              <le>1.2750000000000000e+02</le></_></splits></_>
        <_>
          <depth>1</depth>
          <value>-3.4918492244040111e-01</value></_>
        <_>
          <depth>1</depth>
          <value>5.1762809193335613e-01</value></_></nodes></_>
    <_>
      <nodes>
        <_>
          <depth>0</depth>
          <value>-2.2102401401350919e-03</value>
          <splits>
            <_><var>174</var>
              <quality>1.5800993144512177e-01</quality>
              <le>1.2750000000000000e+02</le></_></splits></_>
        <_>
          <depth>1</depth>
          <value>-2.1864516363598188e-01</value></_>
        <_>
          <depth>1</depth>
          <value>7.6552264306960627e-01</value></_></nodes></_>
    <_>
      <nodes>
        <_>
          <depth>0</depth>
          <value>2.8087991172704278e-02</value>
          <splits>
            <_><var>74</var>
              <quality>1.6831377148628235e-01</quality>
              <le>1.2750000000000000e+02</le></_></splits></_>
        <_>
          <depth>1</depth>
          <value>-1.</value></_>
        <_>
          <depth>1</depth>
          <value>1.9922832247105160e-01</value></_></nodes></_>
    <_>
      <nodes>
        <_>
          <depth>0</depth>
          <value>-4.6393299783726624e-02</value>
          <splits>
            <_><var>140</var>
              <quality>1.4349369704723358e-01</quality>
              <le>1.2750000000000000e+02</le></_></splits></_>
        <_>
          <depth>1</depth>
          <value>-3.1053947501682277e-01</value></_>
        <_>
          <depth>1</depth>
          <value>5.1741739393943553e-01</value></_></nodes></_>
    <_>
      <nodes>
        <_>
          <depth>0</depth>
          <value>-6.9303004110672802e-04</value>
          <splits>
            <_><var>138</var>
              <quality>1.7864476144313812e-01</quality>
              <le>1.2750000000000000e+02</le></_></splits></_>
        <_>
          <depth>1</depth>
          <value>-1.</value></_>
        <_>
          <depth>1</depth>
          <value>1.8750296427604937e-01</value></_></nodes></_>
    <_>
      <nodes>
        <_>
          <depth>0</depth>
          <value>-6.0199941749430511e-02</value>
          <splits>
            <_><var>51</var>
              <quality>1.4184491336345673e-01</quality>
              <le>1.2750000000000000e+02</le></_></splits></_>
        <_>
          <depth>1</depth>
          <value>-2.9791799992742302e-01</value></_>
        <_>
          <depth>1</depth>
          <value>5.5220150305221605e-01</value></_></nodes></_>
    <_>
      <nodes>
        <_>
          <depth>0</depth>
          <value>7.8280514859772610e-03</value>
          <splits>
            <_><var>8</var>
              <quality>1.6804669797420502e-01</quality>
              <le>1.2750000000000000e+02</le></_></splits></_>
        <_>
          <depth>1</depth>
          <value>-4.0962268071818081e-01</value></_>
        <_>
          <depth>1</depth>
          <value>4.3143369947101529e-01</value></_></nodes></_>
    <_>
      <nodes>
        <_>
          <depth>0</depth>
          <value>-6.2070286803241085e-03</value>
          <splits>
            <_><var>70</var>
              <quality>2.1162848174571991e-01</quality>
              <le>1.2750000000000000e+02</le></_></splits></_>
        <_>
          <depth>1</depth>
          <value>2.1791915086136610e-01</value></_>
        <_>
          <depth>1</depth>
          <value>-1.</value></_></nodes></_>
    <_>
      <nodes>
        <_>
          <depth>0</depth>
          <value>-7.6618456338859345e-02</value>
          <splits>
            <_><var>150</var>
              <quality>1.4722944796085358e-01</quality>
              <le>1.2750000000000000e+02</le></_></splits></_>
        <_>
          <depth>1</depth>
          <value>-1.</value></_>
        <_>
          <depth>1</depth>
          <value>8.4908644539834446e-02</value></_></nodes></_>
    <_>
      <nodes>
        <_>
          <depth>0</depth>
          <value>-5.5535130730469562e-02</value>
          <splits>
            <_><var>158</var>
              <quality>2.2528837621212006e-01</quality>
              <le>1.2750000000000000e+02</le></_></splits></_>
        <_>
          <depth>1</depth>
          <value>-4.5271754375979972e-01</value></_>
        <_>
          <depth>1</depth>
          <value>5.3383581184384177e-01</value></_></nodes></_>
    <_>
      <nodes>
        <_>
          <depth>0</depth>
          <value>-2.0269862030625776e-02</value>
          <splits>
            <_><var>49</var>
              <quality>1.5197660028934479e-01</quality>
              <le>1.2750000000000000e+02</le></_></splits></_>
        <_>
          <depth>1</depth>
          <value>-3.0108651831377836e-01</value></_>
        <_>
          <depth>1</depth>
          <value>5.4809655039226690e-01</value></_></nodes></_>
    <_>
      <nodes>
        <_>
          <depth>0</depth>
          <value>1.9746688334817183e-02</value>
          <splits>
            <_><var>56</var>
              <quality>1.8713289499282837e-01</quality>
              <le>1.2750000000000000e+02</le></_></splits></_>
        <_>
          <depth>1</depth>
          <value>2.1256335163953555e-01</value></_>
        <_>
          <depth>1</depth>
          <value>-1.</value></_></nodes></_>
    <_>
      <nodes>
        <_>
          <depth>0</depth>
          <value>-6.9091173462278291e-02</value>
          <splits>
            <_><var>83</var>
              <quality>1.4680641889572144e-01</quality>
              <le>1.2750000000000000e+02</le></_></splits></_>
        <_>
          <depth>1</depth>
          <value>-4.3286776978191988e-01</value></_>
        <_>
          <depth>1</depth>
          <value>3.4180781278991135e-01</value></_></nodes></_>
    <_>
      <nodes>
        <_>
          <depth>0</depth>
          <value>-1.3134281607924373e-02</value>
          <splits>
            <_><var>138</var>
              <quality>2.1280428767204285e-01</quality>
              <le>1.2750000000000000e+02</le></_></splits></_>
        <_>
          <depth>1</depth>
          <value>-1.</value></_>
        <_>
          <depth>1</depth>
          <value>2.1373821257951561e-01</value></_></nodes></_>
    <_>
      <nodes>
        <_>
          <depth>0</depth>
          <value>-7.4768256854517268e-02</value>
          <splits>
            <_><var>74</var>
              <quality>1.6432392597198486e-01</quality>
              <le>1.2750000000000000e+02</le></_></splits></_>
        <_>
          <depth>1</depth>
          <value>-1.</value></_>
        <_>
          <depth>1</depth>
          <value>1.0585507435099453e-01</value></_></nodes></_>
    <_>
      <nodes>
        <_>
          <depth>0</depth>
          <value>-6.3398706351876971e-02</value>
          <splits>
            <_><var>21</var>
              <quality>1.7286799848079681e-01</quality>
              <le>1.2750000000000000e+02</le></_></splits></_>
        <_>
          <depth>1</depth>
          <value>-2.8103559051323168e-01</value></_>
        <_>
          <depth>1</depth>
          <value>7.5413374478167994e-01</value></_></nodes></_>
    <_>
      <nodes>
        <_>
          <depth>0</depth>
          <value>7.6741645546475851e-04</value>
          <splits>
            <_><var>3</var>
              <quality>1.5154924988746643e-01</quality>
              <le>1.2750000000000000e+02</le></_></splits></_>
        <_>
          <depth>1</depth>
          <value>4.7368455995593473e-01</value></_>
        <_>
          <depth>1</depth>
          <value>-3.3633496152555770e-01</value></_></nodes></_>
    <_>
      <nodes>
        <_>
          <depth>0</depth>
          <value>1.3502176690158719e-04</value>
          <splits>
            <_><var>150</var>
              <quality>1.8567046523094177e-01</quality>
              <le>1.2750000000000000e+02</le></_></splits></_>
        <_>
          <depth>1</depth>
          <value>-1.</value></_>
        <_>
          <depth>1</depth>
          <value>1.9545854577880842e-01</value></_></nodes></_>
    <_>
      <nodes>
        <_>
          <depth>0</depth>
          <value>-6.3916990674001223e-02</value>
          <splits>
            <_><var>74</var>
              <quality>1.3860255479812622e-01</quality>
              <le>1.2750000000000000e+02</le></_></splits></_>
        <_>
          <depth>1</depth>
          <value>-1.</value></_>
        <_>
          <depth>1</depth>
          <value>8.7624649154988035e-02</value></_></nodes></_>
    <_>
      <nodes>
        <_>
          <depth>0</depth>
          <value>-4.5921126643596349e-02</value>
          <splits>
            <_><var>8</var>
              <quality>2.1447651088237762e-01</quality>
              <le>1.2750000000000000e+02</le></_></splits></_>
        <_>
          <depth>1</depth>
          <value>-4.3819282560951145e-01</value></_>
        <_>
          <depth>1</depth>
          <value>5.2439482048146435e-01</value></_></nodes></_>
    <_>
      <nodes>
        <_>
          <depth>0</depth>
          <value>-1.9612971280882768e-02</value>
          <splits>
            <_><var>130</var>
              <quality>1.4261619746685028e-01</quality>
              <le>1.2750000000000000e+02</le></_></splits></_>
        <_>
          <depth>1</depth>
          <value>1.3306666781591661e-01</value></_>
        <_>
          <depth>1</depth>
          <value>-1.</value></_></nodes></_>
    <_>
      <nodes>
        <_>
          <depth>0</depth>
          <value>-5.1911706505582633e-02</value>
          <splits>
            <_><var>51</var>
              <quality>1.9057451188564301e-01</quality>
              <le>1.2750000000000000e+02</le></_></splits></_>
        <_>
          <depth>1</depth>
          <value>-3.4582927076597109e-01</value></_>
        <_>
          <depth>1</depth>
          <value>6.2160865246825037e-01</value></_></nodes></_>
    <_>
      <nodes>
        <_>
          <depth>0</depth>
          <value>6.8258753502587937e-03</value>
          <splits>
            <_><var>130</var>
              <quality>1.2212239950895309e-01</quality>
              <le>1.2750000000000000e+02</le></_></splits></_>
        <_>
          <depth>1</depth>
          <value>1.3404073515576800e-01</value></_>
        <_>
          <depth>1</depth>
          <value>-1.</value></_></nodes></_>
    <_>
      <nodes>
        <_>
          <depth>0</depth>
          <value>-4.6424296817565061e-02</value>
          <splits>
            <_><var>158</var>
              <quality>1.7187431454658508e-01</quality>
              <le>1.2750000000000000e+02</le></_></splits></_>
        <_>
          <depth>1</depth>
          <value>-3.9621035443992458e-01</value></_>
        <_>
          <depth>1</depth>
          <value>4.6188367919778295e-01</value></_></nodes></_>
    <_>
      <nodes>
        <_>
          <depth>0</depth>
          <value>8.8072673139020477e-04</value>
          <splits>
            <_><var>86</var>
              <quality>1.9013601541519165e-01</quality>
              <le>1.2750000000000000e+02</le></_></splits></_>
        <_>
          <depth>1</depth>
          <value>-1.</value></_>
        <_>
          <depth>1</depth>
          <value>2.0089817693684694e-01</value></_></nodes></_>
    <_>
      <nodes>
        <_>
          <depth>0</depth>
          <value>-6.6871329416308023e-02</value>
          <splits>
            <_><var>190</var>
              <quality>1.7743329703807831e-01</quality>
              <le>1.2750000000000000e+02</le></_></splits></_>
        <_>
          <depth>1</depth>
          <value>-3.9488431735249896e-01</value></_>
        <_>
          <depth>1</depth>
          <value>4.8749448560453823e-01</value></_></nodes></_>
    <_>
      <nodes>
        <_>
          <depth>0</depth>
          <value>-5.0750650322924041e-03</value>
          <splits>
            <_><var>151</var>
              <quality>1.5861926972866058e-01</quality>
              <le>1.2750000000000000e+02</le></_></splits></_>
        <_>
          <depth>1</depth>
          <value>-1.</value></_>
        <_>
          <depth>1</depth>
          <value>1.6255921004389942e-01</value></_></nodes></_>
    <_>
      <nodes>
        <_>
          <depth>0</depth>
          <value>-5.6576294818228165e-02</value>
          <splits>
            <_><var>180</var>
              <quality>1.2416564673185349e-01</quality>
              <le>1.2750000000000000e+02</le></_></splits></_>
        <_>
          <depth>1</depth>
          <value>4.9537779048183850e-01</value></_>
        <_>
          <depth>1</depth>
          <value>-2.8759836632012492e-01</value></_></nodes></_>
    <_>
      <nodes>
        <_>
          <depth>0</depth>
          <value>-9.4269902628455488e-03</value>
          <splits>
            <_><var>58</var>
              <quality>1.5231539309024811e-01</quality>
              <le>1.2750000000000000e+02</le></_></splits></_>
        <_>
          <depth>1</depth>
          <value>1.5167965202297298e-01</value></_>
        <_>
          <depth>1</depth>
          <value>-1.</value></_></nodes></_>
    <_>
      <nodes>
        <_>
          <depth>0</depth>
          <value>-4.8355044243416169e-02</value>
          <splits>
            <_><var>140</var>
              <quality>1.9709835946559906e-01</quality>
              <le>1.2750000000000000e+02</le></_></splits></_>
        <_>
          <depth>1</depth>
          <value>-3.4710292665388470e-01</value></_>
        <_>
          <depth>1</depth>
          <value>6.3783591291727493e-01</value></_></nodes></_>
    <_>
      <nodes>
        <_>
          <depth>0</depth>
          <value>6.2437229110897385e-03</value>
          <splits>
            <_><var>172</var>
              <quality>1.6487684845924377e-01</quality>
              <le>1.2750000000000000e+02</le></_></splits></_>
        <_>
          <depth>1</depth>
          <value>-2.4860684861181173e-01</value></_>
        <_>
          <depth>1</depth>
          <value>6.8742206432266351e-01</value></_></nodes></_>
    <_>
      <nodes>
        <_>
          <depth>0</depth>
          <value>1.9954102009405682e-02</value>
          <splits>
            <_><var>74</var>
              <quality>1.5951946377754211e-01</quality>
              <le>1.2750000000000000e+02</le></_></splits></_>
        <_>
          <depth>1</depth>
          <value>-1.</value></_>
        <_>
          <depth>1</depth>
          <value>1.8427347496889526e-01</value></_></nodes></_>
    <_>
      <nodes>
        <_>
          <depth>0</depth>
          <value>-4.9828676057978354e-02</value>
          <splits>
            <_><var>130</var>
              <quality>1.4173747599124908e-01</quality>
              <le>1.2750000000000000e+02</le></_></splits></_>
        <_>
          <depth>1</depth>
          <value>1.0463544346966774e-01</value></_>
        <_>
          <depth>1</depth>
          <value>-1.</value></_></nodes></_>
    <_>
      <nodes>
        <_>
          <depth>0</depth>
          <value>-4.8700605954093618e-02</value>
          <splits>
            <_><var>211</var>
              <quality>2.1799343824386597e-01</quality>
              <le>1.2750000000000000e+02</le></_></splits></_>
        <_>
          <depth>1</depth>
          <value>-3.9403368298431929e-01</value></_>
        <_>
          <depth>1</depth>
          <value>6.0895643128853427e-01</value></_></nodes></_>
    <_>
      <nodes>
        <_>
          <depth>0</depth>
          <value>5.9243564020589889e-03</value>
          <splits>
            <_><var>174</var>
              <quality>1.5529166162014008e-01</quality>
              <le>1.2750000000000000e+02</le></_></splits></_>
        <_>
          <depth>1</depth>
          <value>-1.8627590933413851e-01</value></_>
        <_>
          <depth>1</depth>
          <value>8.5582713064929883e-01</value></_></nodes></_>
    <_>
      <nodes>
        <_>
          <depth>0</depth>
          <value>3.2722448252135293e-02</value>
          <splits>
            <_><var>62</var>
              <quality>1.3739740848541260e-01</quality>
              <le>1.2750000000000000e+02</le></_></splits></_>
        <_>
          <depth>1</depth>
          <value>-1.</value></_>
        <_>
          <depth>1</depth>
          <value>1.7180138717985935e-01</value></_></nodes></_>
    <_>
      <nodes>
        <_>
          <depth>0</depth>
          <value>-4.5078372499376983e-02</value>
          <splits>
            <_><var>49</var>
              <quality>1.7589540779590607e-01</quality>
              <le>1.2750000000000000e+02</le></_></splits></_>
        <_>
          <depth>1</depth>
          <value>-3.0673643430020792e-01</value></_>
        <_>
          <depth>1</depth>
          <value>6.5275904645575378e-01</value></_></nodes></_>
    <_>
      <nodes>
        <_>
          <depth>0</depth>
          <value>1.4965680294758305e-02</value>
          <splits>
            <_><var>130</var>
              <quality>1.5261150896549225e-01</quality>
              <le>1.2750000000000000e+02</le></_></splits></_>
        <_>
          <depth>1</depth>
          <value>1.7313040097213847e-01</value></_>
        <_>
          <depth>1</depth>
          <value>-1.</value></_></nodes></_>
    <_>
      <nodes>
        <_>
          <depth>0</depth>
          <value>-4.5594066257034535e-02</value>
          <splits>
            <_><var>8</var>
              <quality>2.0407503843307495e-01</quality>
              <le>1.2750000000000000e+02</le></_></splits></_>
        <_>
          <depth>1</depth>
          <value>-4.1562167518962057e-01</value></_>
        <_>
          <depth>1</depth>
          <value>5.2841692961338915e-01</value></_></nodes></_>
    <_>
      <nodes>
        <_>
          <depth>0</depth>
          <value>-1.6177525190443427e-02</value>
          <splits>
            <_><var>180</var>
              <quality>1.7062139511108398e-01</quality>
              <le>1.2750000000000000e+02</le></_></splits></_>
        <_>
          <depth>1</depth>
          <value>5.1963492687514412e-01</value></_>
        <_>
          <depth>1</depth>
          <value>-3.5079627942782482e-01</value></_></nodes></_>
    <_>
      <nodes>
        <_>
          <depth>0</depth>
          <value>-1.0633900444428786e-03</value>
          <splits>
            <_><var>46</var>
              <quality>1.9452251493930817e-01</quality>
              <le>1.2750000000000000e+02</le></_></splits></_>
        <_>
          <depth>1</depth>
          <value>2.0912426844390061e-01</value></_>
        <_>
          <depth>1</depth>
          <value>-9.7563151061183395e-01</value></_></nodes></_>
    <_>
      <nodes>
        <_>
          <depth>0</depth>
          <value>-6.1813007879832439e-02</value>
          <splits>
            <_><var>61</var>
              <quality>1.2938369810581207e-01</quality>
              <le>1.2750000000000000e+02</le></_></splits></_>
        <_>
          <depth>1</depth>
          <value>-1.</value></_>
        <_>
          <depth>1</depth>
          <value>7.9167726061968619e-02</value></_></nodes></_>
    <_>
      <nodes>
        <_>
          <depth>0</depth>
          <value>-4.8585088360871262e-02</value>
          <splits>
            <_><var>207</var>
              <quality>1.2145776301622391e-01</quality>
              <le>1.2750000000000000e+02</le></_></splits></_>
        <_>
          <depth>1</depth>
          <value>-2.8145584484852149e-01</value></_>
        <_>
          <depth>1</depth>
          <value>4.9060212579715817e-01</value></_></nodes></_>
    <_>
      <nodes>
        <_>
          <depth>0</depth>
          <value>-4.2771560162396006e-03</value>
          <splits>
            <_><var>173</var>
              <quality>1.3334126770496368e-01</quality>
              <le>1.2750000000000000e+02</le></_></splits></_>
        <_>
          <depth>1</depth>
          <value>-2.0478445345196092e-01</value></_>
        <_>
          <depth>1</depth>
          <value>6.9446387353585204e-01</value></_></nodes></_>
    <_>
      <nodes>
        <_>
          <depth>0</depth>
          <value>1.2797393947861155e-02</value>
          <splits>
            <_><var>138</var>
              <quality>1.5154568850994110e-01</quality>
              <le>1.2750000000000000e+02</le></_></splits></_>
        <_>
          <depth>1</depth>
          <value>-1.</value></_>
        <_>
          <depth>1</depth>
          <value>1.6935663456844940e-01</value></_></nodes></_>
    <_>
      <nodes>
        <_>
          <depth>0</depth>
          <value>-4.1169064006789671e-02</value>
          <splits>
            <_><var>51</var>
              <quality>1.9368651509284973e-01</quality>
              <le>1.2750000000000000e+02</le></_></splits></_>
        <_>
          <depth>1</depth>
          <value>-3.4822985017770564e-01</value></_>
        <_>
          <depth>1</depth>
          <value>6.1740014928648979e-01</value></_></nodes></_>
    <_>
      <nodes>
        <_>
          <depth>0</depth>
          <value>-4.0922230890105930e-03</value>
          <splits>
            <_><var>62</var>
              <quality>1.4019869267940521e-01</quality>
              <le>1.2750000000000000e+02</le></_></splits></_>
        <_>
          <depth>1</depth>
          <value>-1.</value></_>
        <_>
          <depth>1</depth>
          <value>1.4397636086209933e-01</value></_></nodes></_>
    <_>
      <nodes>
        <_>
          <depth>0</depth>
          <value>-4.3436044603304247e-02</value>
          <splits>
            <_><var>140</var>
              <quality>1.4108003675937653e-01</quality>
              <le>1.2750000000000000e+02</le></_></splits></_>
        <_>
          <depth>1</depth>
          <value>-2.7934819378356129e-01</value></_>
        <_>
          <depth>1</depth>
          <value>5.7810571929550547e-01</value></_></nodes></_>
    <_>
      <nodes>
        <_>
          <depth>0</depth>
          <value>-2.9137155603313988e-03</value>
          <splits>
            <_><var>130</var>
              <quality>1.7833246290683746e-01</quality>
              <le>1.2750000000000000e+02</le></_></splits></_>
        <_>
          <depth>1</depth>
          <value>1.8550297548425512e-01</value></_>
        <_>
          <depth>1</depth>
          <value>-1.</value></_></nodes></_>
    <_>
      <nodes>
        <_>
          <depth>0</depth>
          <value>-6.1340153111443016e-02</value>
          <splits>
            <_><var>158</var>
              <quality>1.4150792360305786e-01</quality>
              <le>1.2750000000000000e+02</le></_></splits></_>
        <_>
          <depth>1</depth>
          <value>-3.6381198264936787e-01</value></_>
        <_>
          <depth>1</depth>
          <value>4.1830239415395992e-01</value></_></nodes></_>
    <_>
      <nodes>
        <_>
          <depth>0</depth>
          <value>-1.9147762117384684e-02</value>
          <splits>
            <_><var>68</var>
              <quality>1.5592502057552338e-01</quality>
              <le>1.2750000000000000e+02</le></_></splits></_>
        <_>
          <depth>1</depth>
          <value>1.4741251289628196e-01</value></_>
        <_>
          <depth>1</depth>
          <value>-1.</value></_></nodes></_></trees></opencv_ml_boost>
</opencv_storage>
